{"learner":{"attributes":{"scikit_learn":"{\"_estimator_type\": \"regressor\"}"},"feature_names":[],"feature_types":[],"gradient_booster":{"model":{"gbtree_model_param":{"num_parallel_tree":"1","num_trees":"100"},"iteration_indptr":[0,1,2,3,4,5,6,7,8,9,10,11,12,13,14,15,16,17,18,19,20,21,22,23,24,25,26,27,28,29,30,31,32,33,34,35,36,37,38,39,40,41,42,43,44,45,46,47,48,49,50,51,52,53,54,55,56,57,58,59,60,61,62,63,64,65,66,67,68,69,70,71,72,73,74,75,76,77,78,79,80,81,82,83,84,85,86,87,88,89,90,91,92,93,94,95,96,97,98,99,100],"tree_info":[0,0,0,0,0,0,0,0,0,0,0,0,0,0,0,0,0,0,0,0,0,0,0,0,0,0,0,0,0,0,0,0,0,0,0,0,0,0,0,0,0,0,0,0,0,0,0,0,0,0,0,0,0,0,0,0,0,0,0,0,0,0,0,0,0,0,0,0,0,0,0,0,0,0,0,0,0,0,0,0,0,0,0,0,0,0,0,0,0,0,0,0,0,0,0,0,0,0,0,0],"trees":[{"base_weights":[-7.749695E-3,-1.0989573E5,6.070302E5,-1.6308914E5,2.994448E5,2.9532738E5,1.5038435E6,-2.1559206E5,-5.529021E4,1.2820011E5,6.767004E5,6.744947E4,5.4688225E5,1.2688528E6,2.1161905E6,-2.6805047E5,-1.7790622E5,-1.5594488E5,6.2037777E4,8.507573E4,5.397807E5,5.1358312E5,1.3875409E6,-5.3446633E4,1.7048878E5,3.7305338E5,9.5781106E5,9.692168E5,1.9619652E6,1.7412686E6,2.4828495E6,-2.8592122E5,-2.4935505E5,-2.1149312E5,-1.2156111E5,-2.2038655E5,-1.0818077E5,1.0591521E4,1.5061484E5,-4.9783312E4,1.8518722E5,4.1040256E5,9.701934E5,4.24473E5,7.4077544E5,1.1484504E6,1.9544745E6,-1.1211973E5,5.5949492E4,8.679318E4,4.1347922E5,2.7147066E5,4.9782872E5,7.476199E5,1.1872208E6,7.7999556E5,1.2031731E6,1.7084236E6,2.3545768E6,1.5122118E6,2.1327692E6,2.3250092E6,2.7729597E5,-3.0010666E4,-2.7662357E4,-2.712552E4,-2.2166535E4,-2.3959727E4,-1.9027959E4,-1.5589687E4,-5.496298E3,-2.5791172E4,-1.9438943E4,-1.3888792E4,-5.1521123E3,-3.7300183E3,7.793633E3,7.9407085E3,2.535339E4,-1.2759818E4,4.177006E1,1.2379891E4,3.0149785E4,1.42921455E4,5.683806E4,6.1967875E4,1.20186555E5,3.4729984E4,5.179249E4,6.2383074E4,8.728182E4,9.454507E4,1.3051977E5,1.5516825E5,2.1480986E5,-1.9461287E4,-6.727853E3,-8.462401E3,1.3112739E4,2.9263328E3,1.5299906E4,3.2935703E4,5.588082E4,2.0363996E4,3.8215695E4,4.044522E4,6.486512E4,6.4357363E4,9.9772516E4,1.0358668E5,1.5107442E5,6.4074027E4,1.0098236E5,9.975738E4,1.4451398E5,1.4961094E5,2.1127045E5,2.0213067E5,2.5792142E5,1.3693373E5,1.617616E5,1.8541292E5,2.2459716E5,2.015578E5,2.6434547E5],"categories":[],"categories_nodes":[],"categories_segments":[],"categories_sizes":[],"default_left":[0,0,0,0,0,0,0,0,0,0,0,0,0,0,0,0,0,0,0,0,0,0,0,0,0,0,0,0,0,0,0,0,0,0,0,0,0,0,0,0,0,0,0,0,0,0,0,0,0,0,0,0,0,0,0,0,0,0,0,0,0,0,0,0,0,0,0,0,0,0,0,0,0,0,0,0,0,0,0,0,0,0,0,0,0,0,0,0,0,0,0,0,0,0,0,0,0,0,0,0,0,0,0,0,0,0,0,0,0,0,0,0,0,0,0,0,0,0,0,0,0,0,0,0,0],"id":0,"left_children":[1,3,5,7,9,11,13,15,17,19,21,23,25,27,29,31,33,35,37,39,41,43,45,47,49,51,53,55,57,59,61,63,65,67,69,71,73,75,77,79,81,83,85,87,89,91,93,95,97,99,101,103,105,107,109,111,113,115,117,119,121,123,-1,-1,-1,-1,-1,-1,-1,-1,-1,-1,-1,-1,-1,-1,-1,-1,-1,-1,-1,-1,-1,-1,-1,-1,-1,-1,-1,-1,-1,-1,-1,-1,-1,-1,-1,-1,-1,-1,-1,-1,-1,-1,-1,-1,-1,-1,-1,-1,-1,-1,-1,-1,-1,-1,-1,-1,-1,-1,-1,-1,-1,-1,-1],"loss_changes":[5.8503355E15,1.6168936E15,3.7574011E15,3.7192484E14,5.5162305E14,5.718828E14,4.962024E14,8.731709E13,2.5421153E14,1.0423039E14,3.0841086E14,6.5234245E13,3.3836987E14,5.189633E14,1.2764616E14,6.1005984E12,4.864829E13,3.563786E13,4.5294574E13,7.182071E13,3.0618923E13,4.361754E13,6.512298E13,1.5475123E13,5.745746E13,4.212333E13,6.7054103E13,7.6666106E13,7.123203E13,3.9639864E13,1.566992E13,1.1617887E12,5.419343E12,9.560866E12,2.1962013E13,4.7602666E12,1.1573335E13,2.028655E13,2.6744048E13,8.855828E12,2.176145E13,1.8088892E13,9.649407E12,1.1078013E13,8.874946E12,9.966539E12,8.0533657E12,5.790782E12,8.909371E12,8.009268E12,8.667135E12,1.3736773E13,2.0792172E13,1.8562513E13,3.1340712E13,3.0461586E13,3.7461376E13,3.6580505E13,1.6796946E13,2.3781368E12,1.3240579E12,2.6105348E13,0E0,0E0,0E0,0E0,0E0,0E0,0E0,0E0,0E0,0E0,0E0,0E0,0E0,0E0,0E0,0E0,0E0,0E0,0E0,0E0,0E0,0E0,0E0,0E0,0E0,0E0,0E0,0E0,0E0,0E0,0E0,0E0,0E0,0E0,0E0,0E0,0E0,0E0,0E0,0E0,0E0,0E0,0E0,0E0,0E0,0E0,0E0,0E0,0E0,0E0,0E0,0E0,0E0,0E0,0E0,0E0,0E0,0E0,0E0,0E0,0E0,0E0,0E0],"parents":[2147483647,0,0,1,1,2,2,3,3,4,4,5,5,6,6,7,7,8,8,9,9,10,10,11,11,12,12,13,13,14,14,15,15,16,16,17,17,18,18,19,19,20,20,21,21,22,22,23,23,24,24,25,25,26,26,27,27,28,28,29,29,30,30,31,31,32,32,33,33,34,34,35,35,36,36,37,37,38,38,39,39,40,40,41,41,42,42,43,43,44,44,45,45,46,46,47,47,48,48,49,49,50,50,51,51,52,52,53,53,54,54,55,55,56,56,57,57,58,58,59,59,60,60,61,61],"right_children":[2,4,6,8,10,12,14,16,18,20,22,24,26,28,30,32,34,36,38,40,42,44,46,48,50,52,54,56,58,60,62,64,66,68,70,72,74,76,78,80,82,84,86,88,90,92,94,96,98,100,102,104,106,108,110,112,114,116,118,120,122,124,-1,-1,-1,-1,-1,-1,-1,-1,-1,-1,-1,-1,-1,-1,-1,-1,-1,-1,-1,-1,-1,-1,-1,-1,-1,-1,-1,-1,-1,-1,-1,-1,-1,-1,-1,-1,-1,-1,-1,-1,-1,-1,-1,-1,-1,-1,-1,-1,-1,-1,-1,-1,-1,-1,-1,-1,-1,-1,-1,-1,-1,-1,-1],"split_conditions":[7.423679E-1,8.245501E-1,5.9109807E-1,-2.4498571E-1,-8.879417E-3,-3.3201408E-1,2.480969E0,-4.0009287E-1,-2.5542283E-1,3.0250268E0,2.79088E0,-6.9959015E-1,2.3199873E0,2.1500936E0,1.2233678E0,-7.467839E-1,-5.4548466E-1,-6.9959015E-1,1.9503057E-1,-5.132883E-1,4.63657E0,1.7590876E0,4.63657E0,2.0409524E0,2.3199873E0,6.949799E-2,7.74616E-2,1.4614189E0,3.2925766E0,3.7688215E0,1.9400634E0,-9.282471E-1,-5.7768095E-1,-7.601267E-1,1.1574718E-1,-9.196067E-1,1.9503057E-1,2.214546E-1,2.0071416E-1,-7.279304E-1,1.6875685E0,-5.025562E-1,-4.81092E-1,3.3454794E-1,3.5601214E-1,3.3454794E-1,2.0576267E-1,-9.381018E-1,-9.381018E-1,1.3540978E0,3.5649114E0,1.4614189E0,1.4614189E0,3.7688215E0,3.7688215E0,1.2687668E0,1.1784428E0,1.5365436E0,1.1072595E0,2.910253E0,7.432186E-1,3.5649114E0,2.7729597E5,-3.0010666E4,-2.7662357E4,-2.712552E4,-2.2166535E4,-2.3959727E4,-1.9027959E4,-1.5589687E4,-5.496298E3,-2.5791172E4,-1.9438943E4,-1.3888792E4,-5.1521123E3,-3.7300183E3,7.793633E3,7.9407085E3,2.535339E4,-1.2759818E4,4.177006E1,1.2379891E4,3.0149785E4,1.42921455E4,5.683806E4,6.1967875E4,1.20186555E5,3.4729984E4,5.179249E4,6.2383074E4,8.728182E4,9.454507E4,1.3051977E5,1.5516825E5,2.1480986E5,-1.9461287E4,-6.727853E3,-8.462401E3,1.3112739E4,2.9263328E3,1.5299906E4,3.2935703E4,5.588082E4,2.0363996E4,3.8215695E4,4.044522E4,6.486512E4,6.4357363E4,9.9772516E4,1.0358668E5,1.5107442E5,6.4074027E4,1.0098236E5,9.975738E4,1.4451398E5,1.4961094E5,2.1127045E5,2.0213067E5,2.5792142E5,1.3693373E5,1.617616E5,1.8541292E5,2.2459716E5,2.015578E5,2.6434547E5],"split_indices":[0,9,9,0,0,9,0,9,9,9,9,9,0,9,9,9,0,9,0,0,9,9,9,0,0,9,9,0,9,0,9,9,0,0,9,9,0,9,9,0,9,0,0,0,0,0,0,9,9,0,0,0,0,0,0,9,9,0,0,0,9,0,0,0,0,0,0,0,0,0,0,0,0,0,0,0,0,0,0,0,0,0,0,0,0,0,0,0,0,0,0,0,0,0,0,0,0,0,0,0,0,0,0,0,0,0,0,0,0,0,0,0,0,0,0,0,0,0,0,0,0,0,0,0,0],"split_type":[0,0,0,0,0,0,0,0,0,0,0,0,0,0,0,0,0,0,0,0,0,0,0,0,0,0,0,0,0,0,0,0,0,0,0,0,0,0,0,0,0,0,0,0,0,0,0,0,0,0,0,0,0,0,0,0,0,0,0,0,0,0,0,0,0,0,0,0,0,0,0,0,0,0,0,0,0,0,0,0,0,0,0,0,0,0,0,0,0,0,0,0,0,0,0,0,0,0,0,0,0,0,0,0,0,0,0,0,0,0,0,0,0,0,0,0,0,0,0,0,0,0,0,0,0],"sum_hessian":[8.7696E4,7.4254E4,1.3442E4,6.5715E4,8.539E3,9.976E3,3.466E3,4.4191E4,2.1524E4,5.874E3,2.665E3,5.235E3,4.741E3,2.507E3,9.59E2,1.8472E4,2.5719E4,1.1585E4,9.939E3,5.318E3,5.56E2,2.169E3,4.96E2,2.409E3,2.826E3,3.333E3,1.408E3,1.752E3,7.55E2,4.77E2,4.82E2,9.437E3,9.035E3,1.6112E4,9.607E3,4.93E3,6.655E3,6.288E3,3.651E3,2.266E3,3.052E3,4.29E2,1.27E2,1.56E3,6.09E2,3.51E2,1.45E2,1.568E3,8.41E2,2.103E3,7.23E2,1.839E3,1.494E3,7.37E2,6.71E2,9.71E2,7.81E2,4.62E2,2.93E2,3.04E2,1.73E2,3.18E2,1.64E2,3.724E3,5.713E3,5.04E3,3.995E3,6.926E3,9.186E3,6.338E3,3.269E3,2.014E3,2.916E3,4.315E3,2.34E3,3.675E3,2.613E3,2.159E3,1.492E3,8.88E2,1.378E3,1.999E3,1.053E3,1.6E2,2.69E2,5.2E1,7.5E1,8.57E2,7.03E2,3.26E2,2.83E2,1.56E2,1.95E2,5E1,9.5E1,5.51E2,1.017E3,2.93E2,5.48E2,1.126E3,9.77E2,4.6E2,2.63E2,1.142E3,6.97E2,9.25E2,5.69E2,5.23E2,2.14E2,4.6E2,2.11E2,6.07E2,3.64E2,4.25E2,3.56E2,3.06E2,1.56E2,1.22E2,1.71E2,1.35E2,1.69E2,5.5E1,1.18E2,1.65E2,1.53E2],"tree_param":{"num_deleted":"0","num_feature":"10","num_nodes":"125","size_leaf_vector":"1"}},{"base_weights":[4.8648033E1,-1.04834016E5,5.162328E5,-1.5768377E5,2.023415E5,2.4385564E5,1.317209E6,-2.0534786E5,-7.961034E4,4.574579E4,4.4706994E5,8.8122305E4,5.2059278E5,1.0784034E6,1.8167504E6,-2.4820012E5,-1.7689086E5,-1.6001853E5,7.475362E3,-6.483825E3,2.4883972E5,3.36509E5,1.02494994E6,-2.0587695E4,2.113288E5,3.718647E5,9.9001094E5,8.129052E5,1.721223E6,1.4880761E6,2.1758312E6,-2.6880353E5,-2.3961608E5,-2.0709688E5,-1.4917762E5,-2.1280508E5,-1.2363709E5,-4.1608375E4,7.155261E4,-1.0052511E5,6.0173434E4,2.0446145E5,8.069158E5,2.5542061E5,4.8766956E5,8.648043E5,1.5604435E6,-8.718235E4,7.76738E4,1.222259E5,4.9094375E5,3.0226647E5,5.5486594E5,7.891523E5,1.1416985E6,6.504871E5,1.02317756E6,1.5193358E6,2.213181E6,1.2880056E6,1.9416684E6,1.9529495E6,2.388938E6,-2.7680723E4,-2.6087123E4,-2.5718576E4,-2.2627322E4,-2.3843E4,-1.9760209E4,-1.669291E4,-1.0366909E4,-2.469182E4,-1.9586844E4,-1.4712382E4,-8.002307E3,-7.8461313E3,4.5987222E2,2.8277812E3,1.4689924E4,-1.6037703E4,-6.9538594E3,1.6846204E3,1.2832343E4,6.938904E3,3.0448082E4,5.5888008E4,1.0751545E5,1.9175582E4,3.5029145E4,3.74766E4,6.11782E4,6.767183E4,1.01739375E5,1.28701336E5,1.8424627E5,-1.6211253E4,-3.996089E3,-5.6504717E3,1.4635466E4,6.6794585E3,2.0591475E4,3.881993E4,6.077975E4,2.4093861E4,3.868637E4,4.5639387E4,6.742343E4,6.603026E4,9.283856E4,9.635396E4,1.3068254E5,5.3186496E4,8.2354234E4,8.309146E4,1.2223069E5,1.3213092E5,1.8473636E5,1.9668797E5,2.4043075E5,1.1244043E5,1.4415644E5,1.6720273E5,2.037018E5,1.6931266E5,2.3830878E5,2.2689858E5,2.657523E5],"categories":[],"categories_nodes":[],"categories_segments":[],"categories_sizes":[],"default_left":[0,0,0,0,0,0,0,0,0,0,0,0,0,0,0,0,0,0,0,0,0,0,0,0,0,0,0,0,0,0,0,0,0,0,0,0,0,0,0,0,0,0,0,0,0,0,0,0,0,0,0,0,0,0,0,0,0,0,0,0,0,0,0,0,0,0,0,0,0,0,0,0,0,0,0,0,0,0,0,0,0,0,0,0,0,0,0,0,0,0,0,0,0,0,0,0,0,0,0,0,0,0,0,0,0,0,0,0,0,0,0,0,0,0,0,0,0,0,0,0,0,0,0,0,0,0,0],"id":1,"left_children":[1,3,5,7,9,11,13,15,17,19,21,23,25,27,29,31,33,35,37,39,41,43,45,47,49,51,53,55,57,59,61,63,65,67,69,71,73,75,77,79,81,83,85,87,89,91,93,95,97,99,101,103,105,107,109,111,113,115,117,119,121,123,125,-1,-1,-1,-1,-1,-1,-1,-1,-1,-1,-1,-1,-1,-1,-1,-1,-1,-1,-1,-1,-1,-1,-1,-1,-1,-1,-1,-1,-1,-1,-1,-1,-1,-1,-1,-1,-1,-1,-1,-1,-1,-1,-1,-1,-1,-1,-1,-1,-1,-1,-1,-1,-1,-1,-1,-1,-1,-1,-1,-1,-1,-1,-1,-1],"loss_changes":[4.747862E15,1.1833064E15,3.2307412E15,2.314076E14,4.1004023E14,4.7630744E14,4.463448E14,4.704385E13,1.6508985E14,6.9226274E13,2.6639978E14,9.475195E13,2.7749824E14,4.3294935E14,1.4003956E14,2.6604638E12,1.939661E13,2.3514543E13,3.5602934E13,3.2552279E13,3.2898225E13,4.2849748E13,5.610771E13,2.46045E13,8.2556486E13,3.8347683E13,2.825659E13,6.091069E13,7.043236E13,5.53071E13,2.2788023E13,2.1491614E11,2.493564E12,3.255753E12,9.763249E12,2.840433E12,7.423985E12,1.091574E13,1.6005441E13,3.9836619E12,8.971247E12,1.6704076E13,5.919329E12,1.3728041E13,1.6908313E13,1.417809E13,9.42695E12,7.922881E12,1.4006609E13,1.1657921E13,9.38093E12,1.1284439E13,9.47198E12,6.832169E12,1.4715229E13,2.0500751E13,2.8999955E13,3.1987037E13,5.3450197E12,9.558584E12,1.5561203E12,2.8151967E13,3.345511E12,0E0,0E0,0E0,0E0,0E0,0E0,0E0,0E0,0E0,0E0,0E0,0E0,0E0,0E0,0E0,0E0,0E0,0E0,0E0,0E0,0E0,0E0,0E0,0E0,0E0,0E0,0E0,0E0,0E0,0E0,0E0,0E0,0E0,0E0,0E0,0E0,0E0,0E0,0E0,0E0,0E0,0E0,0E0,0E0,0E0,0E0,0E0,0E0,0E0,0E0,0E0,0E0,0E0,0E0,0E0,0E0,0E0,0E0,0E0,0E0,0E0,0E0,0E0,0E0],"parents":[2147483647,0,0,1,1,2,2,3,3,4,4,5,5,6,6,7,7,8,8,9,9,10,10,11,11,12,12,13,13,14,14,15,15,16,16,17,17,18,18,19,19,20,20,21,21,22,22,23,23,24,24,25,25,26,26,27,27,28,28,29,29,30,30,31,31,32,32,33,33,34,34,35,35,36,36,37,37,38,38,39,39,40,40,41,41,42,42,43,43,44,44,45,45,46,46,47,47,48,48,49,49,50,50,51,51,52,52,53,53,54,54,55,55,56,56,57,57,58,58,59,59,60,60,61,61,62,62],"right_children":[2,4,6,8,10,12,14,16,18,20,22,24,26,28,30,32,34,36,38,40,42,44,46,48,50,52,54,56,58,60,62,64,66,68,70,72,74,76,78,80,82,84,86,88,90,92,94,96,98,100,102,104,106,108,110,112,114,116,118,120,122,124,126,-1,-1,-1,-1,-1,-1,-1,-1,-1,-1,-1,-1,-1,-1,-1,-1,-1,-1,-1,-1,-1,-1,-1,-1,-1,-1,-1,-1,-1,-1,-1,-1,-1,-1,-1,-1,-1,-1,-1,-1,-1,-1,-1,-1,-1,-1,-1,-1,-1,-1,-1,-1,-1,-1,-1,-1,-1,-1,-1,-1,-1,-1,-1,-1],"split_conditions":[6.3504684E-1,6.1341304E-1,5.9109807E-1,-3.4157467E-1,-1.4839678E-1,-1.7644581E-1,2.0409524E0,-4.616069E-1,-3.1106186E-1,2.0329323E0,2.598405E0,-5.65812E-1,2.480969E0,2.2820394E0,1.2687668E0,-8.72658E-1,-6.528057E-1,-7.415875E-1,3.4049E-2,-5.6694883E-1,4.63657E0,1.3695316E0,4.63657E0,1.783382E0,2.3199873E0,1.6116683E0,3.2858768E0,1.2233678E0,3.7801633E0,3.7688215E0,2.910253E0,-5.8841306E-1,-6.528057E-1,-8.674478E-1,4.787717E-2,-9.769854E-1,9.844163E-2,1.08186066E-1,1.4883515E-1,-7.8159094E-1,1.1784428E0,-5.4548466E-1,-4.81092E-1,2.2722688E-1,1.9503057E-1,1.7356636E-1,2.0576267E-1,-8.571262E-1,-8.801054E-1,1.3540978E0,3.2858768E0,1.9236803E-1,1.8644373E-1,1.8644373E-1,1.4050339E-1,1.2897053E0,1.2467768E0,1.3540978E0,1.0106705E0,2.7492714E0,7.432186E-1,2.2820394E0,1.9400634E0,-2.7680723E4,-2.6087123E4,-2.5718576E4,-2.2627322E4,-2.3843E4,-1.9760209E4,-1.669291E4,-1.0366909E4,-2.469182E4,-1.9586844E4,-1.4712382E4,-8.002307E3,-7.8461313E3,4.5987222E2,2.8277812E3,1.4689924E4,-1.6037703E4,-6.9538594E3,1.6846204E3,1.2832343E4,6.938904E3,3.0448082E4,5.5888008E4,1.0751545E5,1.9175582E4,3.5029145E4,3.74766E4,6.11782E4,6.767183E4,1.01739375E5,1.28701336E5,1.8424627E5,-1.6211253E4,-3.996089E3,-5.6504717E3,1.4635466E4,6.6794585E3,2.0591475E4,3.881993E4,6.077975E4,2.4093861E4,3.868637E4,4.5639387E4,6.742343E4,6.603026E4,9.283856E4,9.635396E4,1.3068254E5,5.3186496E4,8.2354234E4,8.309146E4,1.2223069E5,1.3213092E5,1.8473636E5,1.9668797E5,2.4043075E5,1.1244043E5,1.4415644E5,1.6720273E5,2.037018E5,1.6931266E5,2.3830878E5,2.2689858E5,2.657523E5],"split_indices":[0,9,9,0,0,9,0,9,9,9,9,9,0,9,9,9,0,9,0,0,9,9,9,0,0,0,0,9,9,0,0,0,0,0,9,9,0,9,9,0,9,0,0,0,0,0,0,9,9,0,0,9,9,9,9,0,0,0,0,0,9,9,9,0,0,0,0,0,0,0,0,0,0,0,0,0,0,0,0,0,0,0,0,0,0,0,0,0,0,0,0,0,0,0,0,0,0,0,0,0,0,0,0,0,0,0,0,0,0,0,0,0,0,0,0,0,0,0,0,0,0,0,0,0,0,0,0],"split_type":[0,0,0,0,0,0,0,0,0,0,0,0,0,0,0,0,0,0,0,0,0,0,0,0,0,0,0,0,0,0,0,0,0,0,0,0,0,0,0,0,0,0,0,0,0,0,0,0,0,0,0,0,0,0,0,0,0,0,0,0,0,0,0,0,0,0,0,0,0,0,0,0,0,0,0,0,0,0,0,0,0,0,0,0,0,0,0,0,0,0,0,0,0,0,0,0,0,0,0,0,0,0,0,0,0,0,0,0,0,0,0,0,0,0,0,0,0,0,0,0,0,0,0,0,0,0,0],"sum_hessian":[8.7696E4,7.2887E4,1.4809E4,6.2188E4,1.0699E4,1.1052E4,3.757E3,3.8613E4,2.3575E4,6.525E3,4.174E3,7.073E3,3.979E3,2.544E3,1.213E3,1.5406E4,2.3207E4,1.2257E4,1.1318E4,5.191E3,1.334E3,3.505E3,6.69E2,3.758E3,3.315E3,3.023E3,9.56E2,1.802E3,7.42E2,6.36E2,5.77E2,4.522E3,1.0884E4,1.1101E4,1.2106E4,4.999E3,7.258E3,6.409E3,4.909E3,2.153E3,3.038E3,1.237E3,9.7E1,2.283E3,1.222E3,5.17E2,1.52E2,2.24E3,1.518E3,2.515E3,8E2,2.192E3,8.31E2,4.14E2,5.42E2,1.019E3,7.83E2,5.29E2,2.13E2,4.44E2,1.92E2,2.87E2,2.9E2,2.234E3,2.288E3,4.69E3,6.194E3,2.576E3,8.525E3,8.707E3,3.399E3,1.654E3,3.345E3,4.716E3,2.542E3,3.565E3,2.844E3,3.119E3,1.79E3,7.33E2,1.42E3,1.858E3,1.18E3,5.27E2,7.1E2,5.2E1,4.5E1,1.368E3,9.15E2,6.42E2,5.8E2,2.34E2,2.83E2,8E1,7.2E1,8.65E2,1.375E3,5.14E2,1.004E3,1.514E3,1.001E3,4.28E2,3.72E2,1.273E3,9.19E2,4.58E2,3.73E2,2.18E2,1.96E2,2.64E2,2.78E2,6.07E2,4.12E2,4.01E2,3.82E2,3.33E2,1.96E2,9.8E1,1.15E2,2.19E2,2.25E2,5.5E1,1.37E2,1.82E2,1.05E2,2.07E2,8.3E1],"tree_param":{"num_deleted":"0","num_feature":"10","num_nodes":"127","size_leaf_vector":"1"}},{"base_weights":[8.82285E1,-8.792209E4,5.001411E5,-1.3001965E5,2.5949289E5,2.2027817E5,1.1693688E6,-1.6762039E5,-2.5251111E4,9.096195E4,5.3325056E5,5.7133895E4,4.2142972E5,9.027774E5,1.5450239E6,-2.1158623E5,-1.3266697E5,-1.0711754E5,8.78847E4,6.804033E4,5.607595E5,4.1493138E5,1.1293868E6,-5.011336E4,1.3631917E5,3.1128547E5,8.0451425E5,6.7079425E5,1.4674605E6,1.2978804E6,1.9324991E6,-2.2495662E5,-1.8421284E5,-1.6544523E5,-7.154107E4,-1.544581E5,-4.9615184E4,4.4857152E4,1.6723522E5,-1.0735013E4,1.7440206E5,3.5121422E5,7.500844E5,3.3672256E5,6.1208806E5,9.330201E5,1.5506528E6,-8.906746E4,6.137194E4,7.333248E4,3.4444597E5,2.4630002E5,4.6117347E5,6.3445044E5,9.608559E5,5.38789E5,8.841816E5,1.2589498E6,1.7451984E6,1.0642236E6,1.7923138E6,1.7689911E6,2.196754E6,-2.3486229E4,-2.101105E4,-2.083444E4,-1.525543E4,-1.928883E4,-1.4748726E4,-1.0334765E4,-1.5003018E3,-1.9635568E4,-1.3043784E4,-7.5716094E3,9.214475E1,1.0693588E3,1.0808799E4,1.1148819E4,2.5337479E4,-7.8423843E3,4.374461E3,1.2199067E4,3.035165E4,2.8836291E4,9.020887E4,5.1638742E4,9.5703734E4,2.5982357E4,4.2837855E4,4.916832E4,7.3414195E4,7.525796E4,1.10812914E5,1.2230865E5,1.750793E5,-1.7563736E4,-5.767188E3,-9.397089E3,1.1699775E4,3.429518E3,1.4245588E4,2.8213896E4,4.815425E4,1.7006193E4,3.1836441E4,3.523713E4,5.541154E4,5.4427395E4,7.7628836E4,8.616107E4,1.17345125E5,4.7323215E4,6.50825E4,7.603755E4,1.0116557E5,1.12003266E5,1.4221873E5,1.55201E5,1.9791705E5,8.832525E4,1.1926804E5,1.6448695E5,2.282764E5,1.5614488E5,2.2457598E5,2.0642148E5,2.4008423E5],"categories":[],"categories_nodes":[],"categories_segments":[],"categories_sizes":[],"default_left":[0,0,0,0,0,0,0,0,0,0,0,0,0,0,0,0,0,0,0,0,0,0,0,0,0,0,0,0,0,0,0,0,0,0,0,0,0,0,0,0,0,0,0,0,0,0,0,0,0,0,0,0,0,0,0,0,0,0,0,0,0,0,0,0,0,0,0,0,0,0,0,0,0,0,0,0,0,0,0,0,0,0,0,0,0,0,0,0,0,0,0,0,0,0,0,0,0,0,0,0,0,0,0,0,0,0,0,0,0,0,0,0,0,0,0,0,0,0,0,0,0,0,0,0,0,0,0],"id":2,"left_children":[1,3,5,7,9,11,13,15,17,19,21,23,25,27,29,31,33,35,37,39,41,43,45,47,49,51,53,55,57,59,61,63,65,67,69,71,73,75,77,79,81,83,85,87,89,91,93,95,97,99,101,103,105,107,109,111,113,115,117,119,121,123,125,-1,-1,-1,-1,-1,-1,-1,-1,-1,-1,-1,-1,-1,-1,-1,-1,-1,-1,-1,-1,-1,-1,-1,-1,-1,-1,-1,-1,-1,-1,-1,-1,-1,-1,-1,-1,-1,-1,-1,-1,-1,-1,-1,-1,-1,-1,-1,-1,-1,-1,-1,-1,-1,-1,-1,-1,-1,-1,-1,-1,-1,-1,-1,-1],"loss_changes":[3.8595725E15,1.09068795E15,2.4579502E15,2.6201931E14,3.7181284E14,3.0372754E14,3.861718E14,7.519159E13,1.6272467E14,5.3696763E13,2.1614248E14,4.3419993E13,1.7464599E14,2.958548E14,1.5118983E14,7.8922037E12,5.4628394E13,2.7739659E13,2.517607E13,3.987602E13,8.940495E12,3.9329183E13,4.0576234E13,9.438049E12,3.852895E13,3.1260685E13,2.3984305E13,4.481812E13,3.596646E13,1.11656265E14,2.30323E13,2.0917162E12,5.4069276E12,8.719589E12,1.7119882E13,5.600117E12,6.072984E12,1.0333195E13,1.2423403E13,1.0089185E13,1.3666288E13,3.617667E12,5.357871E12,1.2843395E13,1.0322954E13,1.01933E13,8.348074E12,4.3657116E12,4.875917E12,6.0907785E12,5.698373E12,1.2301986E13,9.644014E12,5.282021E12,9.116504E12,7.00734E12,8.905178E12,7.0241506E12,9.584555E12,1.4522023E13,1.8951812E13,3.5083709E13,1.3738527E12,0E0,0E0,0E0,0E0,0E0,0E0,0E0,0E0,0E0,0E0,0E0,0E0,0E0,0E0,0E0,0E0,0E0,0E0,0E0,0E0,0E0,0E0,0E0,0E0,0E0,0E0,0E0,0E0,0E0,0E0,0E0,0E0,0E0,0E0,0E0,0E0,0E0,0E0,0E0,0E0,0E0,0E0,0E0,0E0,0E0,0E0,0E0,0E0,0E0,0E0,0E0,0E0,0E0,0E0,0E0,0E0,0E0,0E0,0E0,0E0,0E0,0E0,0E0,0E0],"parents":[2147483647,0,0,1,1,2,2,3,3,4,4,5,5,6,6,7,7,8,8,9,9,10,10,11,11,12,12,13,13,14,14,15,15,16,16,17,17,18,18,19,19,20,20,21,21,22,22,23,23,24,24,25,25,26,26,27,27,28,28,29,29,30,30,31,31,32,32,33,33,34,34,35,35,36,36,37,37,38,38,39,39,40,40,41,41,42,42,43,43,44,44,45,45,46,46,47,47,48,48,49,49,50,50,51,51,52,52,53,53,54,54,55,55,56,56,57,57,58,58,59,59,60,60,61,61,62,62],"right_children":[2,4,6,8,10,12,14,16,18,20,22,24,26,28,30,32,34,36,38,40,42,44,46,48,50,52,54,56,58,60,62,64,66,68,70,72,74,76,78,80,82,84,86,88,90,92,94,96,98,100,102,104,106,108,110,112,114,116,118,120,122,124,126,-1,-1,-1,-1,-1,-1,-1,-1,-1,-1,-1,-1,-1,-1,-1,-1,-1,-1,-1,-1,-1,-1,-1,-1,-1,-1,-1,-1,-1,-1,-1,-1,-1,-1,-1,-1,-1,-1,-1,-1,-1,-1,-1,-1,-1,-1,-1,-1,-1,-1,-1,-1,-1,-1,-1,-1,-1,-1,-1,-1,-1,-1,-1,-1],"split_conditions":[7.745642E-1,8.7949103E-1,4.511905E-1,-1.3766468E-1,-1.05468355E-1,-3.3201408E-1,1.4227773E0,-3.579383E-1,-1.8173425E-1,3.7801633E0,3.0250268E0,-7.2336227E-1,2.7492714E0,2.5453615E0,1.8370426E0,-6.241694E-1,-4.9182412E-1,-5.65812E-1,3.478332E-1,-4.381636E-1,-4.7035992E-1,1.8510876E0,4.63657E0,2.5453615E0,2.480969E0,1.783382E0,-1.4457735E-2,1.6116683E0,3.7688215E0,3.0250268E0,2.910253E0,-5.132883E-1,-5.132883E-1,-7.4939466E-1,1.8644373E-1,-8.72658E-1,3.2381582E-1,2.916195E-1,2.808874E-1,-6.635378E-1,1.9400634E0,7.889799E-1,4.63657E0,2.594232E-1,2.916195E-1,3.3454794E-1,2.0576267E-1,-9.966474E-1,-9.8647034E-1,1.5365436E0,3.7688215E0,-2.093853E-2,-3.416962E-2,3.7688215E0,4.144445E0,9.1075844E-1,8.5157394E-1,8.7949103E-1,9.441955E-1,1.9400634E0,4.63657E0,2.598405E0,3.7688215E0,-2.3486229E4,-2.101105E4,-2.083444E4,-1.525543E4,-1.928883E4,-1.4748726E4,-1.0334765E4,-1.5003018E3,-1.9635568E4,-1.3043784E4,-7.5716094E3,9.214475E1,1.0693588E3,1.0808799E4,1.1148819E4,2.5337479E4,-7.8423843E3,4.374461E3,1.2199067E4,3.035165E4,2.8836291E4,9.020887E4,5.1638742E4,9.5703734E4,2.5982357E4,4.2837855E4,4.916832E4,7.3414195E4,7.525796E4,1.10812914E5,1.2230865E5,1.750793E5,-1.7563736E4,-5.767188E3,-9.397089E3,1.1699775E4,3.429518E3,1.4245588E4,2.8213896E4,4.815425E4,1.7006193E4,3.1836441E4,3.523713E4,5.541154E4,5.4427395E4,7.7628836E4,8.616107E4,1.17345125E5,4.7323215E4,6.50825E4,7.603755E4,1.0116557E5,1.12003266E5,1.4221873E5,1.55201E5,1.9791705E5,8.832525E4,1.1926804E5,1.6448695E5,2.282764E5,1.5614488E5,2.2457598E5,2.0642148E5,2.4008423E5],"split_indices":[0,9,9,0,0,9,9,9,9,9,9,9,0,0,0,9,0,9,9,0,0,9,9,0,0,0,9,0,0,9,0,0,0,0,9,9,0,0,0,0,9,2,9,0,0,0,0,9,9,0,0,9,9,0,0,9,9,9,9,9,9,9,0,0,0,0,0,0,0,0,0,0,0,0,0,0,0,0,0,0,0,0,0,0,0,0,0,0,0,0,0,0,0,0,0,0,0,0,0,0,0,0,0,0,0,0,0,0,0,0,0,0,0,0,0,0,0,0,0,0,0,0,0,0,0,0,0],"split_type":[0,0,0,0,0,0,0,0,0,0,0,0,0,0,0,0,0,0,0,0,0,0,0,0,0,0,0,0,0,0,0,0,0,0,0,0,0,0,0,0,0,0,0,0,0,0,0,0,0,0,0,0,0,0,0,0,0,0,0,0,0,0,0,0,0,0,0,0,0,0,0,0,0,0,0,0,0,0,0,0,0,0,0,0,0,0,0,0,0,0,0,0,0,0,0,0,0,0,0,0,0,0,0,0,0,0,0,0,0,0,0,0,0,0,0,0,0,0,0,0,0,0,0,0,0,0,0],"sum_hessian":[8.7696E4,7.4572E4,1.3124E4,6.6513E4,8.059E3,9.255E3,3.869E3,4.8946E4,1.7567E4,4.989E3,3.07E3,5.111E3,4.144E3,2.265E3,1.604E3,2.1676E4,2.727E4,1.0192E4,7.375E3,4.758E3,2.31E2,2.563E3,5.07E2,2.171E3,2.94E3,3.22E3,9.24E2,1.607E3,6.58E2,9.82E2,6.22E2,1.4558E4,7.118E3,1.775E4,9.52E3,5.589E3,4.603E3,4.783E3,2.592E3,2.734E3,2.024E3,1.11E2,1.2E2,1.837E3,7.26E2,3.48E2,1.59E2,1.609E3,5.62E2,2.258E3,6.82E2,2.248E3,9.72E2,4.45E2,4.79E2,9.95E2,6.12E2,3.79E2,2.79E2,6.69E2,3.13E2,3.89E2,2.33E2,8.723E3,5.835E3,4.036E3,3.082E3,7.017E3,1.0733E4,6.092E3,3.428E3,2.034E3,3.555E3,3.035E3,1.568E3,3.106E3,1.677E3,1.575E3,1.017E3,1.219E3,1.515E3,1.441E3,5.83E2,1.01E2,1E1,5.8E1,6.2E1,1.001E3,8.36E2,3.68E2,3.58E2,1.74E2,1.74E2,6.3E1,9.6E1,4.27E2,1.182E3,1.48E2,4.14E2,1.444E3,8.14E2,4.71E2,2.11E2,1.094E3,1.154E3,4.5E2,5.22E2,2.75E2,1.7E2,3.3E2,1.49E2,6.31E2,3.64E2,3.14E2,2.98E2,2.09E2,1.7E2,1.57E2,1.22E2,2.81E2,3.88E2,2.44E2,6.9E1,2.74E2,1.15E2,1.48E2,8.5E1],"tree_param":{"num_deleted":"0","num_feature":"10","num_nodes":"127","size_leaf_vector":"1"}},{"base_weights":[1.21991585E2,-8.857785E4,4.0315984E5,-1.3127819E5,1.4823995E5,2.0037339E5,1.080878E6,-1.6742358E5,-6.97925E4,1.889975E4,3.2044238E5,7.2452445E4,4.387791E5,8.886918E5,1.5319721E6,-2.0217694E5,-1.452206E5,-1.3989642E5,-7.696791E3,-1.5925819E4,2.1425531E5,2.3539847E5,7.559725E5,-2.779993E4,1.6596455E5,2.979867E5,8.054942E5,7.151264E5,1.5251662E6,1.257799E6,1.771239E6,-2.1971962E5,-1.9495105E5,-1.6535634E5,-1.1818378E5,-1.8054212E5,-1.1373183E5,-4.266445E4,4.0672723E4,-9.432385E4,2.9265684E4,1.7150697E5,6.203589E5,1.6703683E5,3.3185603E5,6.378424E5,1.2235842E6,-7.021225E4,7.710151E4,9.301624E4,3.9268353E5,2.1708072E5,3.9662397E5,6.429603E5,9.786096E5,5.909471E5,9.689949E5,1.4112156E6,2.0084683E5,1.0602012E6,1.5822675E6,1.6317431E6,2.0115358E6,-2.2600357E4,-2.1295719E4,-2.149506E4,-1.8625334E4,-1.890813E4,-1.555738E4,-1.3596164E4,-8.337131E3,-2.14206E4,-1.694606E4,-1.2728498E4,-7.8974165E3,-7.6374736E3,-5.18877E2,2.0740935E2,9.559695E3,-1.48742705E4,-7.241015E3,-4.934405E1,9.933458E3,4.635773E3,2.4231764E4,4.6417465E4,8.218696E4,1.1144602E4,2.32093E4,2.586251E4,4.3577746E4,5.0698395E4,7.739899E4,1.05281766E5,1.4353214E5,-1.2493695E4,-2.8084421E3,-6.087989E3,1.3022108E4,4.737168E3,1.601371E4,2.9095592E4,4.8124395E4,1.6761451E4,2.865315E4,3.324817E4,5.076112E4,5.3043414E4,7.593706E4,8.401295E4,1.149475E5,4.8130934E4,7.662008E4,7.704615E4,1.1529998E5,1.1884444E5,1.7278262E5,9.567654E4,1.17394586E5,1.384538E5,1.706501E5,1.3793189E5,1.9318344E5,1.8388658E5,2.1431203E5],"categories":[],"categories_nodes":[],"categories_segments":[],"categories_sizes":[],"default_left":[0,0,0,0,0,0,0,0,0,0,0,0,0,0,0,0,0,0,0,0,0,0,0,0,0,0,0,0,0,0,0,0,0,0,0,0,0,0,0,0,0,0,0,0,0,0,0,0,0,0,0,0,0,0,0,0,0,0,0,0,0,0,0,0,0,0,0,0,0,0,0,0,0,0,0,0,0,0,0,0,0,0,0,0,0,0,0,0,0,0,0,0,0,0,0,0,0,0,0,0,0,0,0,0,0,0,0,0,0,0,0,0,0,0,0,0,0,0,0,0,0,0,0,0,0],"id":3,"left_children":[1,3,5,7,9,11,13,15,17,19,21,23,25,27,29,31,33,35,37,39,41,43,45,47,49,51,53,55,57,59,61,63,65,67,69,71,73,75,77,79,81,83,85,87,89,91,93,95,97,99,101,103,105,107,109,111,113,115,-1,117,119,121,123,-1,-1,-1,-1,-1,-1,-1,-1,-1,-1,-1,-1,-1,-1,-1,-1,-1,-1,-1,-1,-1,-1,-1,-1,-1,-1,-1,-1,-1,-1,-1,-1,-1,-1,-1,-1,-1,-1,-1,-1,-1,-1,-1,-1,-1,-1,-1,-1,-1,-1,-1,-1,-1,-1,-1,-1,-1,-1,-1,-1,-1,-1],"loss_changes":[3.13515E15,7.268742E14,2.1738217E15,1.3533167E14,2.4457044E14,3.713312E14,3.144649E14,2.9564139E13,9.81538E13,4.2674145E13,1.7427665E14,7.430936E13,2.1929365E14,2.8138116E14,6.9079986E13,1.8520704E12,1.2722297E13,1.1242765E13,2.0227121E13,1.8865294E13,1.6368485E13,2.5938096E13,4.169836E13,1.7027721E13,6.7788954E13,2.4445494E13,3.2544578E13,6.2824567E13,2.7290222E13,3.1020737E13,1.6092437E13,1.3685175E11,1.8031145E12,3.0833503E12,6.1738645E12,1.5103521E12,3.026509E12,8.7682774E12,1.063796E13,2.3110636E12,7.0438177E12,7.6100005E12,2.451059E12,8.324687E12,1.2322462E13,1.0582296E13,4.057167E12,6.2787955E12,8.085052E12,9.502143E12,8.851005E12,5.7613547E12,9.683876E12,7.600817E12,1.2497617E13,2.5628338E13,2.3185643E13,2.9403749E13,0E0,2.641707E12,2.3291138E12,2.5438756E13,7.850395E11,0E0,0E0,0E0,0E0,0E0,0E0,0E0,0E0,0E0,0E0,0E0,0E0,0E0,0E0,0E0,0E0,0E0,0E0,0E0,0E0,0E0,0E0,0E0,0E0,0E0,0E0,0E0,0E0,0E0,0E0,0E0,0E0,0E0,0E0,0E0,0E0,0E0,0E0,0E0,0E0,0E0,0E0,0E0,0E0,0E0,0E0,0E0,0E0,0E0,0E0,0E0,0E0,0E0,0E0,0E0,0E0,0E0,0E0,0E0,0E0,0E0,0E0],"parents":[2147483647,0,0,1,1,2,2,3,3,4,4,5,5,6,6,7,7,8,8,9,9,10,10,11,11,12,12,13,13,14,14,15,15,16,16,17,17,18,18,19,19,20,20,21,21,22,22,23,23,24,24,25,25,26,26,27,27,28,28,29,29,30,30,31,31,32,32,33,33,34,34,35,35,36,36,37,37,38,38,39,39,40,40,41,41,42,42,43,43,44,44,45,45,46,46,47,47,48,48,49,49,50,50,51,51,52,52,53,53,54,54,55,55,56,56,57,57,59,59,60,60,61,61,62,62],"right_children":[2,4,6,8,10,12,14,16,18,20,22,24,26,28,30,32,34,36,38,40,42,44,46,48,50,52,54,56,58,60,62,64,66,68,70,72,74,76,78,80,82,84,86,88,90,92,94,96,98,100,102,104,106,108,110,112,114,116,-1,118,120,122,124,-1,-1,-1,-1,-1,-1,-1,-1,-1,-1,-1,-1,-1,-1,-1,-1,-1,-1,-1,-1,-1,-1,-1,-1,-1,-1,-1,-1,-1,-1,-1,-1,-1,-1,-1,-1,-1,-1,-1,-1,-1,-1,-1,-1,-1,-1,-1,-1,-1,-1,-1,-1,-1,-1,-1,-1,-1,-1,-1,-1,-1,-1],"split_conditions":[5.599221E-1,5.735647E-1,7.0009047E-1,-3.4157467E-1,-2.3425362E-1,-1.2463125E-1,2.0409524E0,-4.8375964E-1,-3.8618198E-1,2.2820394E0,2.4331112E0,-5.8877933E-1,2.2126663E0,2.79088E0,1.2687668E0,-8.801054E-1,-6.098773E-1,-7.901093E-1,2.3316897E-2,-6.206094E-1,4.63657E0,1.2233678E0,4.63657E0,2.0409524E0,2.2126663E0,1.1823841E0,3.2858768E0,1.6875685E0,4.63657E0,3.5649114E0,3.2858768E0,-9.8647034E-1,-7.171983E-1,-8.2451934E-1,-2.8358782E-2,-1.0423537E0,1.5210216E-1,1.918438E-2,4.787717E-2,-8.3525145E-1,1.3695316E0,-6.098773E-1,-4.81092E-1,9.844163E-2,1.5210216E-1,1.4137004E-1,2.0576267E-1,-8.369028E-1,-9.282471E-1,1.2467768E0,3.0712347E0,2.8071216E-1,2.9039365E-1,2.309534E-1,2.6018044E-1,1.2897053E0,1.1394558E0,1.2467768E0,2.0084683E5,2.7492714E0,4.144445E0,2.0329323E0,1.5388429E0,-2.2600357E4,-2.1295719E4,-2.149506E4,-1.8625334E4,-1.890813E4,-1.555738E4,-1.3596164E4,-8.337131E3,-2.14206E4,-1.694606E4,-1.2728498E4,-7.8974165E3,-7.6374736E3,-5.18877E2,2.0740935E2,9.559695E3,-1.48742705E4,-7.241015E3,-4.934405E1,9.933458E3,4.635773E3,2.4231764E4,4.6417465E4,8.218696E4,1.1144602E4,2.32093E4,2.586251E4,4.3577746E4,5.0698395E4,7.739899E4,1.05281766E5,1.4353214E5,-1.2493695E4,-2.8084421E3,-6.087989E3,1.3022108E4,4.737168E3,1.601371E4,2.9095592E4,4.8124395E4,1.6761451E4,2.865315E4,3.324817E4,5.076112E4,5.3043414E4,7.593706E4,8.401295E4,1.149475E5,4.8130934E4,7.662008E4,7.704615E4,1.1529998E5,1.1884444E5,1.7278262E5,9.567654E4,1.17394586E5,1.384538E5,1.706501E5,1.3793189E5,1.9318344E5,1.8388658E5,2.1431203E5],"split_indices":[0,9,9,0,0,9,0,9,9,9,9,9,0,9,9,9,0,9,0,0,9,9,9,0,0,0,0,9,9,0,0,9,0,0,9,9,0,9,9,0,9,0,0,0,0,0,0,9,9,0,0,9,9,9,9,0,0,0,0,0,0,9,9,0,0,0,0,0,0,0,0,0,0,0,0,0,0,0,0,0,0,0,0,0,0,0,0,0,0,0,0,0,0,0,0,0,0,0,0,0,0,0,0,0,0,0,0,0,0,0,0,0,0,0,0,0,0,0,0,0,0,0,0,0,0],"split_type":[0,0,0,0,0,0,0,0,0,0,0,0,0,0,0,0,0,0,0,0,0,0,0,0,0,0,0,0,0,0,0,0,0,0,0,0,0,0,0,0,0,0,0,0,0,0,0,0,0,0,0,0,0,0,0,0,0,0,0,0,0,0,0,0,0,0,0,0,0,0,0,0,0,0,0,0,0,0,0,0,0,0,0,0,0,0,0,0,0,0,0,0,0,0,0,0,0,0,0,0,0,0,0,0,0,0,0,0,0,0,0,0,0,0,0,0,0,0,0,0,0,0,0,0,0],"sum_hessian":[8.7696E4,7.1878E4,1.5818E4,6.0898E4,1.098E4,1.2176E4,3.642E3,3.8351E4,2.2547E4,6.271E3,4.709E3,7.925E3,4.251E3,2.556E3,1.086E3,1.4947E4,2.3404E4,1.059E4,1.1957E4,5.323E3,9.48E2,3.941E3,7.68E2,3.825E3,4.1E3,3.073E3,1.178E3,2.01E3,5.46E2,5.09E2,5.77E2,4.352E3,1.0595E4,1.3411E4,9.993E3,4.145E3,6.445E3,6.94E3,5.017E3,1.946E3,3.377E3,8.59E2,8.9E1,2.308E3,1.633E3,6.15E2,1.53E2,2.724E3,1.101E3,3.103E3,9.97E2,1.69E3,1.383E3,6.1E2,5.68E2,1.352E3,6.58E2,4.45E2,1.01E2,3.19E2,1.9E2,3.7E2,2.07E2,2.239E3,2.113E3,3.204E3,7.391E3,3.91E3,9.501E3,6.613E3,3.38E3,1.022E3,3.123E3,4.635E3,1.81E3,3.653E3,3.287E3,2.947E3,2.07E3,5.57E2,1.389E3,2.371E3,1.006E3,3.11E2,5.48E2,5.2E1,3.7E1,1.246E3,1.062E3,9.6E2,6.73E2,3.16E2,2.99E2,8.8E1,6.5E1,1.184E3,1.54E3,3.06E2,7.95E2,1.848E3,1.255E3,4.66E2,5.31E2,9.89E2,7.01E2,8.79E2,5.04E2,3.13E2,2.97E2,3.17E2,2.51E2,8.34E2,5.18E2,3.19E2,3.39E2,2.64E2,1.81E2,1.72E2,1.47E2,7.8E1,1.12E2,2.04E2,1.66E2,9.6E1,1.11E2],"tree_param":{"num_deleted":"0","num_feature":"10","num_nodes":"125","size_leaf_vector":"1"}},{"base_weights":[1.4441171E2,-7.133174E4,4.0625422E5,-1.0224934E5,2.42454E5,1.8338955E5,9.62121E5,-1.4256333E5,-3.2326193E4,1.1318053E5,5.1051372E5,4.1603797E4,3.4505075E5,7.3307856E5,1.2459368E6,-1.7555719E5,-1.1586228E5,-9.38237E4,6.4305176E4,3.0287783E4,2.2679386E5,4.079202E5,1.0633191E6,-5.1705715E4,9.93303E4,2.5489955E5,6.5985556E5,5.430073E5,1.1948146E6,1.04206394E6,1.5550892E6,-1.8634769E5,-1.5836197E5,-1.3988975E5,-8.117666E4,-1.327666E5,-4.812404E4,2.2331676E4,1.368805E5,-5.1849526E3,1.79326E5,1.8733284E5,5.924487E5,3.32272E5,5.7720744E5,8.788775E5,1.2994984E6,-7.924619E4,5.140891E4,5.2122887E4,2.7783256E5,1.875279E5,3.5693875E5,5.1593938E5,7.930394E5,4.523712E5,7.506409E5,1.02190356E6,1.4256474E6,8.5326294E5,1.4596391E6,1.4156125E6,1.7804004E6,-1.9723008E4,-1.7898217E4,-1.7944695E4,-1.4121077E4,-1.5887218E4,-1.2570218E4,-1.0255359E4,-2.9284216E3,-1.6340519E4,-1.11455625E4,-7.291072E3,1.1412609E2,-6.5902966E2,7.470513E3,9.277568E3,2.1442162E4,-7.1127393E3,3.3384375E3,1.3530757E4,4.731837E4,1.5275695E4,2.9265738E4,4.8450094E4,7.889671E4,2.8743967E4,4.403758E4,5.032815E4,7.0592266E4,6.928124E4,9.6514945E4,1.16746016E5,1.6123911E5,-1.5226036E4,-5.317347E3,-1.2422828E4,9.19486E3,2.1155022E3,1.1693628E4,2.2027738E4,3.8356418E4,1.3045817E4,2.554942E4,2.96251E4,4.7257492E4,4.3995676E4,6.3633383E4,7.024865E4,9.851041E4,3.7162668E4,5.2216344E4,6.629238E4,8.566252E4,9.129838E4,1.1384925E5,1.2845562E5,1.6025189E5,6.7442516E4,9.4807805E4,1.339358E5,1.8597711E5,1.2461756E5,1.8416078E5,1.6598197E5,1.966114E5],"categories":[],"categories_nodes":[],"categories_segments":[],"categories_sizes":[],"default_left":[0,0,0,0,0,0,0,0,0,0,0,0,0,0,0,0,0,0,0,0,0,0,0,0,0,0,0,0,0,0,0,0,0,0,0,0,0,0,0,0,0,0,0,0,0,0,0,0,0,0,0,0,0,0,0,0,0,0,0,0,0,0,0,0,0,0,0,0,0,0,0,0,0,0,0,0,0,0,0,0,0,0,0,0,0,0,0,0,0,0,0,0,0,0,0,0,0,0,0,0,0,0,0,0,0,0,0,0,0,0,0,0,0,0,0,0,0,0,0,0,0,0,0,0,0,0,0],"id":4,"left_children":[1,3,5,7,9,11,13,15,17,19,21,23,25,27,29,31,33,35,37,39,41,43,45,47,49,51,53,55,57,59,61,63,65,67,69,71,73,75,77,79,81,83,85,87,89,91,93,95,97,99,101,103,105,107,109,111,113,115,117,119,121,123,125,-1,-1,-1,-1,-1,-1,-1,-1,-1,-1,-1,-1,-1,-1,-1,-1,-1,-1,-1,-1,-1,-1,-1,-1,-1,-1,-1,-1,-1,-1,-1,-1,-1,-1,-1,-1,-1,-1,-1,-1,-1,-1,-1,-1,-1,-1,-1,-1,-1,-1,-1,-1,-1,-1,-1,-1,-1,-1,-1,-1,-1,-1,-1,-1],"loss_changes":[2.5456242E15,7.2349496E14,1.6257891E15,1.9135515E14,2.3173624E14,2.1475786E14,2.432487E14,3.791342E13,1.4754268E14,4.250472E13,1.2297652E14,2.689959E13,1.2407959E14,1.8198541E14,1.0401391E14,3.5436836E12,1.9825401E13,2.6994868E13,2.9411441E13,1.3804747E13,2.7362045E13,2.333335E13,1.3668733E13,5.425302E12,2.5981673E13,2.33409E13,1.8259785E13,2.7437392E13,2.2730645E13,7.861817E13,1.8346221E13,9.127141E11,2.6623093E12,3.7666192E12,1.0804921E13,5.330004E12,8.525967E12,9.269208E12,1.2079851E13,5.368855E12,6.4294245E12,6.218995E12,3.5422869E12,6.0382207E12,5.0304133E12,2.4454638E12,4.1907472E12,2.860745E12,2.8808944E12,4.8969364E12,3.84059E12,7.929877E12,9.354959E12,4.028696E12,8.0735654E12,5.6103514E12,3.5877405E12,3.4051709E12,4.354929E12,1.1230165E13,1.2621365E13,2.7659455E13,2.3349858E12,0E0,0E0,0E0,0E0,0E0,0E0,0E0,0E0,0E0,0E0,0E0,0E0,0E0,0E0,0E0,0E0,0E0,0E0,0E0,0E0,0E0,0E0,0E0,0E0,0E0,0E0,0E0,0E0,0E0,0E0,0E0,0E0,0E0,0E0,0E0,0E0,0E0,0E0,0E0,0E0,0E0,0E0,0E0,0E0,0E0,0E0,0E0,0E0,0E0,0E0,0E0,0E0,0E0,0E0,0E0,0E0,0E0,0E0,0E0,0E0,0E0,0E0,0E0,0E0],"parents":[2147483647,0,0,1,1,2,2,3,3,4,4,5,5,6,6,7,7,8,8,9,9,10,10,11,11,12,12,13,13,14,14,15,15,16,16,17,17,18,18,19,19,20,20,21,21,22,22,23,23,24,24,25,25,26,26,27,27,28,28,29,29,30,30,31,31,32,32,33,33,34,34,35,35,36,36,37,37,38,38,39,39,40,40,41,41,42,42,43,43,44,44,45,45,46,46,47,47,48,48,49,49,50,50,51,51,52,52,53,53,54,54,55,55,56,56,57,57,58,58,59,59,60,60,61,61,62,62],"right_children":[2,4,6,8,10,12,14,16,18,20,22,24,26,28,30,32,34,36,38,40,42,44,46,48,50,52,54,56,58,60,62,64,66,68,70,72,74,76,78,80,82,84,86,88,90,92,94,96,98,100,102,104,106,108,110,112,114,116,118,120,122,124,126,-1,-1,-1,-1,-1,-1,-1,-1,-1,-1,-1,-1,-1,-1,-1,-1,-1,-1,-1,-1,-1,-1,-1,-1,-1,-1,-1,-1,-1,-1,-1,-1,-1,-1,-1,-1,-1,-1,-1,-1,-1,-1,-1,-1,-1,-1,-1,-1,-1,-1,-1,-1,-1,-1,-1,-1,-1,-1,-1,-1,-1,-1,-1,-1],"split_conditions":[7.745642E-1,1.0533845E0,4.8341185E-1,-2.8791413E-1,-8.879417E-3,-3.432059E-1,1.3695316E0,-3.3201408E-1,-1.12061374E-1,-3.9523518E-1,3.2925766E0,-7.596901E-1,2.7492714E0,2.5453615E0,1.8370426E0,-6.603749E-1,-5.7768095E-1,-5.359799E-1,1.7356636E-1,2.598405E0,3.2925766E0,2.0329323E0,4.63657E0,2.910253E0,2.5453615E0,1.5365436E0,-8.70782E-3,1.783382E0,3.7688215E0,3.0250268E0,2.910253E0,-6.3134146E-1,-6.3134146E-1,-7.8159094E-1,2.5125328E-1,-8.4400684E-1,2.0576267E-1,4.271699E-1,4.3964532E-1,-6.85002E-1,4.63657E0,2.1500936E0,4.63657E0,4.3113688E-1,4.5260108E-1,2.808874E-1,5.3845793E-1,-1.0179973E0,-1.0708146E0,1.676061E0,3.7688215E0,1.918438E-2,1.1574718E-1,3.7688215E0,4.144445E0,1.1072595E0,8.7949103E-1,8.5157394E-1,4.4878726E0,1.0428668E0,4.63657E0,2.598405E0,3.7688215E0,-1.9723008E4,-1.7898217E4,-1.7944695E4,-1.4121077E4,-1.5887218E4,-1.2570218E4,-1.0255359E4,-2.9284216E3,-1.6340519E4,-1.11455625E4,-7.291072E3,1.1412609E2,-6.5902966E2,7.470513E3,9.277568E3,2.1442162E4,-7.1127393E3,3.3384375E3,1.3530757E4,4.731837E4,1.5275695E4,2.9265738E4,4.8450094E4,7.889671E4,2.8743967E4,4.403758E4,5.032815E4,7.0592266E4,6.928124E4,9.6514945E4,1.16746016E5,1.6123911E5,-1.5226036E4,-5.317347E3,-1.2422828E4,9.19486E3,2.1155022E3,1.1693628E4,2.2027738E4,3.8356418E4,1.3045817E4,2.554942E4,2.96251E4,4.7257492E4,4.3995676E4,6.3633383E4,7.024865E4,9.851041E4,3.7162668E4,5.2216344E4,6.629238E4,8.566252E4,9.129838E4,1.1384925E5,1.2845562E5,1.6025189E5,6.7442516E4,9.4807805E4,1.339358E5,1.8597711E5,1.2461756E5,1.8416078E5,1.6598197E5,1.966114E5],"split_indices":[0,9,9,0,0,9,9,9,9,0,9,9,0,0,0,9,0,9,0,9,9,9,9,0,0,0,9,0,0,9,0,0,0,0,9,9,0,9,9,0,9,9,9,0,0,0,0,9,9,0,0,9,9,0,0,0,9,9,0,0,9,9,0,0,0,0,0,0,0,0,0,0,0,0,0,0,0,0,0,0,0,0,0,0,0,0,0,0,0,0,0,0,0,0,0,0,0,0,0,0,0,0,0,0,0,0,0,0,0,0,0,0,0,0,0,0,0,0,0,0,0,0,0,0,0,0,0],"split_type":[0,0,0,0,0,0,0,0,0,0,0,0,0,0,0,0,0,0,0,0,0,0,0,0,0,0,0,0,0,0,0,0,0,0,0,0,0,0,0,0,0,0,0,0,0,0,0,0,0,0,0,0,0,0,0,0,0,0,0,0,0,0,0,0,0,0,0,0,0,0,0,0,0,0,0,0,0,0,0,0,0,0,0,0,0,0,0,0,0,0,0,0,0,0,0,0,0,0,0,0,0,0,0,0,0,0,0,0,0,0,0,0,0,0,0,0,0,0,0,0,0,0,0,0,0,0,0],"sum_hessian":[8.7696E4,7.4572E4,1.3124E4,6.7884E4,6.688E3,9.369E3,3.755E3,4.3058E4,2.4826E4,4.513E3,2.175E3,4.992E3,4.377E3,2.08E3,1.675E3,1.9257E4,2.3801E4,1.5171E4,9.655E3,2.61E3,1.903E3,1.836E3,3.39E2,1.908E3,3.084E3,3.404E3,9.73E2,1.475E3,6.05E2,1.012E3,6.63E2,1.1826E4,7.431E3,1.4059E4,9.742E3,8.19E3,6.981E3,6.118E3,3.537E3,2.109E3,5.01E2,1.719E3,1.84E2,1.271E3,5.65E2,1.93E2,1.46E2,1.506E3,4.02E2,2.44E3,6.44E2,2.052E3,1.352E3,4.7E2,5.03E2,1.029E3,4.46E2,3.49E2,2.56E2,6.99E2,3.13E2,4.14E2,2.49E2,4.763E3,7.063E3,3.329E3,4.102E3,6.009E3,8.05E3,6.899E3,2.843E3,3.357E3,4.833E3,4.644E3,2.337E3,3.942E3,2.176E3,2.256E3,1.281E3,7.78E2,1.331E3,4.37E2,6.4E1,1.296E3,4.23E2,1.21E2,6.3E1,9.01E2,3.7E2,3.62E2,2.03E2,6.4E1,1.29E2,1.06E2,4E1,3.95E2,1.111E3,7.5E1,3.27E2,1.652E3,7.88E2,4.19E2,2.25E2,1.117E3,9.35E2,8.89E2,4.63E2,2.91E2,1.79E2,3.45E2,1.58E2,4.8E2,5.49E2,2.48E2,1.98E2,1.85E2,1.64E2,1.47E2,1.09E2,2.45E2,4.54E2,2.44E2,6.9E1,2.99E2,1.15E2,1.57E2,9.2E1],"tree_param":{"num_deleted":"0","num_feature":"10","num_nodes":"127","size_leaf_vector":"1"}},{"base_weights":[1.65194E2,-7.379803E4,3.197003E5,-1.0630767E5,1.2395068E5,1.692749E5,9.129591E5,-1.3563017E5,-5.714001E4,2.106349E4,2.6493656E5,6.1727543E4,3.7407156E5,7.299755E5,1.2390292E6,-1.610723E5,-1.1537008E5,-1.020041E5,8.953308E3,-6.5527666E3,1.8831067E5,2.0028497E5,6.2583125E5,-2.0512875E4,1.4093986E5,2.56379E5,6.947786E5,5.577839E5,1.1516255E6,1.0828745E6,1.4986115E6,-1.7326694E5,-1.5058439E5,-1.3628477E5,-9.692443E4,-1.3635417E5,-7.221E4,-2.2913053E4,4.8008934E4,-6.5533938E4,3.377148E4,1.4937566E5,5.041876E5,1.5533488E5,3.0539994E5,4.775922E5,8.668887E5,-6.014661E4,5.5650566E4,8.069035E4,3.3958997E5,1.8967558E5,3.4510516E5,5.771017E5,8.725382E5,4.4096772E5,6.852706E5,9.79874E5,1.4300205E6,8.818341E5,1.4066574E6,1.3944818E6,1.7216667E5,-1.8378037E4,-1.6805326E4,-1.6874701E4,-1.397151E4,-1.5896604E4,-1.288977E4,-1.1233394E4,-6.962068E3,-1.6321995E4,-1.234953E4,-9.243343E3,-4.61822E3,-4.0721497E3,1.0852958E3,1.7762883E3,8.4587705E3,-1.1027288E4,-4.33141E3,6.5470825E2,9.124151E3,1.4855444E3,2.0173164E4,7.8039586E4,4.1412242E4,1.0422377E4,2.0250684E4,2.4694918E4,3.9988703E4,3.8559516E4,5.6026125E4,6.430345E4,9.5324945E4,-1.183496E4,-3.4244062E3,-2.8437957E3,1.0865171E4,3.7681934E3,1.3584489E4,2.9893744E4,5.0831793E4,1.4903222E4,2.5559186E4,2.838065E4,4.294803E4,4.8043957E4,6.966039E4,7.54073E4,1.05378664E5,3.5670465E4,5.5008637E4,5.7910707E4,8.42519E4,8.2386945E4,1.2021745E5,1.28191125E5,1.6059467E5,7.656751E4,9.6043586E4,1.2885219E5,1.6848416E5,1.246454E5,1.7019861E5],"categories":[],"categories_nodes":[],"categories_segments":[],"categories_sizes":[],"default_left":[0,0,0,0,0,0,0,0,0,0,0,0,0,0,0,0,0,0,0,0,0,0,0,0,0,0,0,0,0,0,0,0,0,0,0,0,0,0,0,0,0,0,0,0,0,0,0,0,0,0,0,0,0,0,0,0,0,0,0,0,0,0,0,0,0,0,0,0,0,0,0,0,0,0,0,0,0,0,0,0,0,0,0,0,0,0,0,0,0,0,0,0,0,0,0,0,0,0,0,0,0,0,0,0,0,0,0,0,0,0,0,0,0,0,0,0,0,0,0,0,0,0,0,0,0],"id":5,"left_children":[1,3,5,7,9,11,13,15,17,19,21,23,25,27,29,31,33,35,37,39,41,43,45,47,49,51,53,55,57,59,61,63,65,67,69,71,73,75,77,79,81,83,85,87,89,91,93,95,97,99,101,103,105,107,109,111,113,115,117,119,121,123,-1,-1,-1,-1,-1,-1,-1,-1,-1,-1,-1,-1,-1,-1,-1,-1,-1,-1,-1,-1,-1,-1,-1,-1,-1,-1,-1,-1,-1,-1,-1,-1,-1,-1,-1,-1,-1,-1,-1,-1,-1,-1,-1,-1,-1,-1,-1,-1,-1,-1,-1,-1,-1,-1,-1,-1,-1,-1,-1,-1,-1,-1,-1],"loss_changes":[2.0726412E15,4.578294E14,1.4708973E15,8.816776E13,1.4584865E14,2.896321E14,1.9802027E14,1.9729268E13,6.775612E13,2.6854598E13,9.885079E13,5.618354E13,1.7073052E14,1.5458634E14,4.6897553E13,2.1457053E12,8.215937E12,1.3920056E13,1.1500839E13,1.1872664E13,1.0058792E13,1.6957571E13,2.2598776E13,1.2778238E13,5.2550544E13,1.9547923E13,2.4912085E13,2.2334434E13,2.8196058E13,4.7644743E13,7.9814585E12,3.9912997E11,1.7801968E12,1.6539986E12,4.762498E12,2.1635227E12,3.8335016E12,3.06056E12,4.592118E12,2.0102476E12,4.6384027E12,5.1735607E12,1.9157274E12,6.0618766E12,5.849351E12,2.8336886E12,4.104093E12,4.1931212E12,6.460974E12,7.9936346E12,6.858165E12,5.0360463E12,7.2276414E12,8.143996E12,9.554692E12,7.1227335E12,1.1615269E13,1.2396014E13,4.0384772E12,3.5193902E12,7.22796E12,1.1989535E13,0E0,0E0,0E0,0E0,0E0,0E0,0E0,0E0,0E0,0E0,0E0,0E0,0E0,0E0,0E0,0E0,0E0,0E0,0E0,0E0,0E0,0E0,0E0,0E0,0E0,0E0,0E0,0E0,0E0,0E0,0E0,0E0,0E0,0E0,0E0,0E0,0E0,0E0,0E0,0E0,0E0,0E0,0E0,0E0,0E0,0E0,0E0,0E0,0E0,0E0,0E0,0E0,0E0,0E0,0E0,0E0,0E0,0E0,0E0,0E0,0E0,0E0,0E0],"parents":[2147483647,0,0,1,1,2,2,3,3,4,4,5,5,6,6,7,7,8,8,9,9,10,10,11,11,12,12,13,13,14,14,15,15,16,16,17,17,18,18,19,19,20,20,21,21,22,22,23,23,24,24,25,25,26,26,27,27,28,28,29,29,30,30,31,31,32,32,33,33,34,34,35,35,36,36,37,37,38,38,39,39,40,40,41,41,42,42,43,43,44,44,45,45,46,46,47,47,48,48,49,49,50,50,51,51,52,52,53,53,54,54,55,55,56,56,57,57,58,58,59,59,60,60,61,61],"right_children":[2,4,6,8,10,12,14,16,18,20,22,24,26,28,30,32,34,36,38,40,42,44,46,48,50,52,54,56,58,60,62,64,66,68,70,72,74,76,78,80,82,84,86,88,90,92,94,96,98,100,102,104,106,108,110,112,114,116,118,120,122,124,-1,-1,-1,-1,-1,-1,-1,-1,-1,-1,-1,-1,-1,-1,-1,-1,-1,-1,-1,-1,-1,-1,-1,-1,-1,-1,-1,-1,-1,-1,-1,-1,-1,-1,-1,-1,-1,-1,-1,-1,-1,-1,-1,-1,-1,-1,-1,-1,-1,-1,-1,-1,-1,-1,-1,-1,-1,-1,-1,-1,-1,-1,-1],"split_conditions":[5.062616E-1,6.321389E-1,8.245501E-1,-3.5230675E-1,-2.3425362E-1,-7.918959E-2,1.8370426E0,-3.7932327E-1,-2.0469749E-1,2.4331112E0,2.598405E0,-5.585057E-1,2.2126663E0,2.598405E0,1.6875685E0,-7.6524067E-1,-6.635378E-1,-6.471755E-1,-1.961152E-2,-5.8841306E-1,4.63657E0,1.4802302E0,3.7801633E0,1.8370426E0,2.2126663E0,1.1823841E0,3.5649114E0,1.0106705E0,3.7801633E0,3.2858768E0,2.910253E0,-9.666813E-1,-6.85002E-1,-8.674478E-1,5.5668936E-3,-9.381018E-1,-1.961152E-2,2.6018044E-1,1.4883515E-1,-7.9232305E-1,1.4227773E0,-6.742699E-1,-3.922224E-1,6.624532E-2,1.7356636E-1,9.844163E-2,-8.879417E-3,-8.942161E-1,-8.571262E-1,1.1394558E0,4.144445E0,3.9901492E-1,3.2410923E-1,3.592669E-1,3.8646072E-1,1.4802302E0,1.6875685E0,1.1394558E0,1.0106705E0,2.3199873E0,4.4878726E0,2.79088E0,1.7216667E5,-1.8378037E4,-1.6805326E4,-1.6874701E4,-1.397151E4,-1.5896604E4,-1.288977E4,-1.1233394E4,-6.962068E3,-1.6321995E4,-1.234953E4,-9.243343E3,-4.61822E3,-4.0721497E3,1.0852958E3,1.7762883E3,8.4587705E3,-1.1027288E4,-4.33141E3,6.5470825E2,9.124151E3,1.4855444E3,2.0173164E4,7.8039586E4,4.1412242E4,1.0422377E4,2.0250684E4,2.4694918E4,3.9988703E4,3.8559516E4,5.6026125E4,6.430345E4,9.5324945E4,-1.183496E4,-3.4244062E3,-2.8437957E3,1.0865171E4,3.7681934E3,1.3584489E4,2.9893744E4,5.0831793E4,1.4903222E4,2.5559186E4,2.838065E4,4.294803E4,4.8043957E4,6.966039E4,7.54073E4,1.05378664E5,3.5670465E4,5.5008637E4,5.7910707E4,8.42519E4,8.2386945E4,1.2021745E5,1.28191125E5,1.6059467E5,7.656751E4,9.6043586E4,1.2885219E5,1.6848416E5,1.246454E5,1.7019861E5],"split_indices":[0,9,9,0,0,9,0,9,9,9,9,9,0,9,9,9,0,9,0,0,9,9,9,0,0,0,0,0,9,0,0,9,0,0,9,9,0,9,9,0,9,0,8,0,0,0,0,9,9,0,0,9,9,9,9,9,9,0,0,0,0,9,0,0,0,0,0,0,0,0,0,0,0,0,0,0,0,0,0,0,0,0,0,0,0,0,0,0,0,0,0,0,0,0,0,0,0,0,0,0,0,0,0,0,0,0,0,0,0,0,0,0,0,0,0,0,0,0,0,0,0,0,0,0,0],"split_type":[0,0,0,0,0,0,0,0,0,0,0,0,0,0,0,0,0,0,0,0,0,0,0,0,0,0,0,0,0,0,0,0,0,0,0,0,0,0,0,0,0,0,0,0,0,0,0,0,0,0,0,0,0,0,0,0,0,0,0,0,0,0,0,0,0,0,0,0,0,0,0,0,0,0,0,0,0,0,0,0,0,0,0,0,0,0,0,0,0,0,0,0,0,0,0,0,0,0,0,0,0,0,0,0,0,0,0,0,0,0,0,0,0,0,0,0,0,0,0,0,0,0,0,0,0],"sum_hessian":[8.7696E4,7.1213E4,1.6483E4,6.1159E4,1.0054E4,1.315E4,3.333E3,3.831E4,2.2849E4,5.813E3,4.241E3,8.623E3,4.527E3,2.137E3,1.196E3,1.698E4,2.133E4,1.361E4,9.239E3,4.99E3,8.23E2,3.598E3,6.43E2,4.231E3,4.392E3,3.313E3,1.214E3,1.519E3,6.18E2,7.5E2,4.46E2,7.844E3,9.136E3,9.993E3,1.1337E4,6.32E3,7.29E3,5.088E3,4.151E3,2.026E3,2.964E3,7.34E2,8.9E1,2.522E3,1.076E3,4E2,2.43E2,2.783E3,1.448E3,3.371E3,1.021E3,1.893E3,1.42E3,7.33E2,4.81E2,7.95E2,7.24E2,3.85E2,2.33E2,4.65E2,2.85E2,3.09E2,1.37E2,2.589E3,5.255E3,3.415E3,5.721E3,2.45E3,7.543E3,7.245E3,4.092E3,2.042E3,4.278E3,4.101E3,3.189E3,3.331E3,1.757E3,2.273E3,1.878E3,6.71E2,1.355E3,2.012E3,9.52E2,2.06E2,5.28E2,2E1,6.9E1,1.212E3,1.31E3,6.67E2,4.09E2,1.92E2,2.08E2,7E1,1.73E2,8.56E2,1.927E3,5.6E2,8.88E2,1.895E3,1.476E3,8.25E2,1.96E2,1.173E3,7.2E2,8.25E2,5.95E2,4.08E2,3.25E2,2.94E2,1.87E2,4.51E2,3.44E2,4.35E2,2.89E2,2.29E2,1.56E2,1.31E2,1.02E2,1.92E2,2.73E2,2.04E2,8.1E1,2.12E2,9.7E1],"tree_param":{"num_deleted":"0","num_feature":"10","num_nodes":"125","size_leaf_vector":"1"}},{"base_weights":[1.7717285E2,-5.5965594E4,3.4170894E5,-8.073924E4,2.1638778E5,1.6441092E5,8.22176E5,-1.0857631E5,-6.8495176E3,1.005098E5,4.4051597E5,5.0050777E4,3.185007E5,6.365463E5,1.04608294E6,-1.3559244E5,-8.0529195E4,-5.931697E4,8.6081516E4,3.526581E4,2.024317E5,3.5129262E5,8.734477E5,-2.234259E4,1.1402342E5,2.4395539E5,6.017847E5,4.8182638E5,1.0203596E6,9.2164956E5,1.3836178E6,-1.4775923E5,-1.1599586E5,-1.0478898E5,-3.0888635E4,-9.500536E4,-1.4205358E4,5.4794516E4,1.5164283E5,1.9291475E4,2.8118678E5,1.670439E5,4.9855347E5,2.932342E5,4.952353E5,7.157666E5,1.0848434E6,-4.7316156E4,7.1877375E4,7.093979E4,2.806759E5,1.9472519E5,3.5168738E5,5.0268438E5,7.283294E5,3.9220428E5,6.400235E5,9.347759E5,1.3529771E6,7.469908E5,1.22021E6,1.2682558E6,1.5523392E5,-1.601837E4,-1.4150033E4,-1.3380752E4,-9.442279E3,-1.238235E4,-8.877991E3,-5.2536626E3,1.089581E3,-1.2266537E4,-7.7062617E3,-3.4496235E3,2.3847688E3,2.787974E3,1.0066102E4,1.0238129E4,1.9948838E4,-4.6708613E3,5.2951006E3,2.296015E4,7.439036E4,1.3361182E4,2.4385383E4,4.0692434E4,6.628125E4,2.4661486E4,3.757085E4,4.261347E4,5.908081E4,5.4074887E4,7.781711E4,9.561424E4,1.3491386E5,-1.1599804E4,-2.4135356E3,-7.617975E3,1.1127909E4,4.0146855E3,1.2415428E4,2.5234154E4,4.277295E4,1.54587E4,2.6147654E4,2.8983639E4,4.41877E4,4.595223E4,6.9818375E4,6.6253555E4,9.421018E4,3.467366E4,4.9198285E4,5.5826414E4,7.1346336E4,8.240534E4,1.0547573E5,1.1721433E5,1.508283E5,6.5312227E4,9.056369E4,1.0896448E5,1.4051019E5,1.1386596E5,1.5656319E5],"categories":[],"categories_nodes":[],"categories_segments":[],"categories_sizes":[],"default_left":[0,0,0,0,0,0,0,0,0,0,0,0,0,0,0,0,0,0,0,0,0,0,0,0,0,0,0,0,0,0,0,0,0,0,0,0,0,0,0,0,0,0,0,0,0,0,0,0,0,0,0,0,0,0,0,0,0,0,0,0,0,0,0,0,0,0,0,0,0,0,0,0,0,0,0,0,0,0,0,0,0,0,0,0,0,0,0,0,0,0,0,0,0,0,0,0,0,0,0,0,0,0,0,0,0,0,0,0,0,0,0,0,0,0,0,0,0,0,0,0,0,0,0,0,0],"id":6,"left_children":[1,3,5,7,9,11,13,15,17,19,21,23,25,27,29,31,33,35,37,39,41,43,45,47,49,51,53,55,57,59,61,63,65,67,69,71,73,75,77,79,81,83,85,87,89,91,93,95,97,99,101,103,105,107,109,111,113,115,117,119,121,123,-1,-1,-1,-1,-1,-1,-1,-1,-1,-1,-1,-1,-1,-1,-1,-1,-1,-1,-1,-1,-1,-1,-1,-1,-1,-1,-1,-1,-1,-1,-1,-1,-1,-1,-1,-1,-1,-1,-1,-1,-1,-1,-1,-1,-1,-1,-1,-1,-1,-1,-1,-1,-1,-1,-1,-1,-1,-1,-1,-1,-1,-1,-1],"loss_changes":[1.6815684E15,5.081953E14,1.054551E15,1.4200172E14,1.6305689E14,1.5937263E14,1.38032464E14,3.7985966E13,9.212462E13,2.752965E13,8.235623E13,2.4052345E13,8.121887E13,1.0800219E14,6.2187637E13,6.0725133E12,2.9629E13,1.9440536E13,1.3976881E13,9.917774E12,1.6850948E13,1.4696959E13,1.1390102E13,5.737682E12,1.9775338E13,1.6118324E13,9.69146E12,1.8237002E13,1.3651788E13,5.6814364E13,5.91417E12,1.2024566E12,3.7484243E12,5.0255144E12,7.308425E12,3.336573E12,4.120134E12,5.696819E12,5.169572E12,5.274168E12,3.5050823E12,3.6780523E12,2.319039E12,4.782681E12,3.109741E12,1.894651E12,3.94835E12,3.0651793E12,2.9895E12,3.5868912E12,2.2504035E12,5.5780217E12,5.2047873E12,3.5016566E12,4.2985408E12,3.617562E12,2.4237708E12,4.710371E12,1.1809482E12,9.847722E12,8.2941187E12,7.697823E12,0E0,0E0,0E0,0E0,0E0,0E0,0E0,0E0,0E0,0E0,0E0,0E0,0E0,0E0,0E0,0E0,0E0,0E0,0E0,0E0,0E0,0E0,0E0,0E0,0E0,0E0,0E0,0E0,0E0,0E0,0E0,0E0,0E0,0E0,0E0,0E0,0E0,0E0,0E0,0E0,0E0,0E0,0E0,0E0,0E0,0E0,0E0,0E0,0E0,0E0,0E0,0E0,0E0,0E0,0E0,0E0,0E0,0E0,0E0,0E0,0E0,0E0,0E0],"parents":[2147483647,0,0,1,1,2,2,3,3,4,4,5,5,6,6,7,7,8,8,9,9,10,10,11,11,12,12,13,13,14,14,15,15,16,16,17,17,18,18,19,19,20,20,21,21,22,22,23,23,24,24,25,25,26,26,27,27,28,28,29,29,30,30,31,31,32,32,33,33,34,34,35,35,36,36,37,37,38,38,39,39,40,40,41,41,42,42,43,43,44,44,45,45,46,46,47,47,48,48,49,49,50,50,51,51,52,52,53,53,54,54,55,55,56,56,57,57,58,58,59,59,60,60,61,61],"right_children":[2,4,6,8,10,12,14,16,18,20,22,24,26,28,30,32,34,36,38,40,42,44,46,48,50,52,54,56,58,60,62,64,66,68,70,72,74,76,78,80,82,84,86,88,90,92,94,96,98,100,102,104,106,108,110,112,114,116,118,120,122,124,-1,-1,-1,-1,-1,-1,-1,-1,-1,-1,-1,-1,-1,-1,-1,-1,-1,-1,-1,-1,-1,-1,-1,-1,-1,-1,-1,-1,-1,-1,-1,-1,-1,-1,-1,-1,-1,-1,-1,-1,-1,-1,-1,-1,-1,-1,-1,-1,-1,-1,-1,-1,-1,-1,-1,-1,-1,-1,-1,-1,-1,-1,-1],"split_conditions":[8.6042106E-1,1.1334825E0,5.524164E-1,-1.3766468E-1,-8.879417E-3,-2.782629E-1,1.4227773E0,-2.418462E-1,-5.53865E-2,-3.6303887E-1,3.2925766E0,-6.673902E-1,2.910253E0,2.7492714E0,2.3199873E0,-5.81893E-1,-4.81092E-1,-4.915425E-1,3.5601214E-1,3.7801633E0,3.2925766E0,2.1500936E0,4.63657E0,2.910253E0,2.7492714E0,1.8370426E0,1.321578E-1,1.783382E0,4.4878726E0,2.79088E0,2.0329323E0,-8.876415E-1,-5.025562E-1,-7.279304E-1,3.592669E-1,-8.1807196E-1,3.5601214E-1,4.6775573E-1,3.72534E-1,-6.957341E-1,7.889799E-1,2.0329323E0,4.63657E0,4.0967265E-1,4.5260108E-1,2.594232E-1,5.3845793E-1,-9.769854E-1,-1.0179973E0,1.676061E0,4.4878726E0,1.4883515E-1,1.321578E-1,4.4878726E0,4.4878726E0,1.0141323E0,9.1075844E-1,9.1075844E-1,9.1075844E-1,1.5365436E0,3.7801633E0,3.7688215E0,1.5523392E5,-1.601837E4,-1.4150033E4,-1.3380752E4,-9.442279E3,-1.238235E4,-8.877991E3,-5.2536626E3,1.089581E3,-1.2266537E4,-7.7062617E3,-3.4496235E3,2.3847688E3,2.787974E3,1.0066102E4,1.0238129E4,1.9948838E4,-4.6708613E3,5.2951006E3,2.296015E4,7.439036E4,1.3361182E4,2.4385383E4,4.0692434E4,6.628125E4,2.4661486E4,3.757085E4,4.261347E4,5.908081E4,5.4074887E4,7.781711E4,9.561424E4,1.3491386E5,-1.1599804E4,-2.4135356E3,-7.617975E3,1.1127909E4,4.0146855E3,1.2415428E4,2.5234154E4,4.277295E4,1.54587E4,2.6147654E4,2.8983639E4,4.41877E4,4.595223E4,6.9818375E4,6.6253555E4,9.421018E4,3.467366E4,4.9198285E4,5.5826414E4,7.1346336E4,8.240534E4,1.0547573E5,1.1721433E5,1.508283E5,6.5312227E4,9.056369E4,1.0896448E5,1.4051019E5,1.1386596E5,1.5656319E5],"split_indices":[0,9,9,0,0,9,9,9,9,0,9,9,0,0,0,9,0,9,0,9,9,9,9,0,0,0,9,0,0,9,9,9,0,0,9,9,0,9,9,0,2,9,9,0,0,0,0,9,9,0,0,9,9,0,0,9,9,9,9,0,9,0,0,0,0,0,0,0,0,0,0,0,0,0,0,0,0,0,0,0,0,0,0,0,0,0,0,0,0,0,0,0,0,0,0,0,0,0,0,0,0,0,0,0,0,0,0,0,0,0,0,0,0,0,0,0,0,0,0,0,0,0,0,0,0],"split_type":[0,0,0,0,0,0,0,0,0,0,0,0,0,0,0,0,0,0,0,0,0,0,0,0,0,0,0,0,0,0,0,0,0,0,0,0,0,0,0,0,0,0,0,0,0,0,0,0,0,0,0,0,0,0,0,0,0,0,0,0,0,0,0,0,0,0,0,0,0,0,0,0,0,0,0,0,0,0,0,0,0,0,0,0,0,0,0,0,0,0,0,0,0,0,0,0,0,0,0,0,0,0,0,0,0,0,0,0,0,0,0,0,0,0,0,0,0,0,0,0,0,0,0,0,0],"sum_hessian":[8.7696E4,7.5316E4,1.238E4,6.9037E4,6.279E3,9.044E3,3.336E3,5.0145E4,1.8892E4,4.14E3,2.139E3,5.192E3,3.852E3,1.826E3,1.51E3,2.554E4,2.4605E4,1.2075E4,6.817E3,2.525E3,1.615E3,1.775E3,3.64E2,2.436E3,2.756E3,3.051E3,8.01E2,1.303E3,5.23E2,1.106E3,4.04E2,1.5753E4,9.787E3,1.6527E4,8.078E3,6.741E3,5.334E3,4.616E3,2.201E3,2.372E3,1.53E2,1.444E3,1.71E2,1.267E3,5.08E2,2.11E2,1.53E2,1.926E3,5.1E2,2.191E3,5.65E2,2.096E3,9.55E2,4.52E2,3.49E2,8.34E2,4.69E2,4.19E2,1.04E2,7E2,4.06E2,2.45E2,1.59E2,5.269E3,1.0484E4,5.358E3,4.429E3,7.547E3,8.98E3,5.321E3,2.757E3,2.65E3,4.091E3,3.479E3,1.855E3,2.91E3,1.706E3,1.086E3,1.115E3,8.01E2,1.571E3,1.39E2,1.4E1,1.008E3,4.36E2,1.12E2,5.9E1,8.12E2,4.55E2,2.98E2,2.1E2,5.8E1,1.53E2,1.06E2,4.7E1,4.85E2,1.441E3,1.07E2,4.03E2,1.389E3,8.02E2,4.76E2,8.9E1,1.311E3,7.85E2,5.69E2,3.86E2,3.73E2,7.9E1,2.7E2,7.9E1,5.76E2,2.58E2,2.26E2,2.43E2,2.22E2,1.97E2,5.2E1,5.2E1,4.43E2,2.57E2,2.42E2,1.64E2,1.74E2,7.1E1],"tree_param":{"num_deleted":"0","num_feature":"10","num_nodes":"125","size_leaf_vector":"1"}},{"base_weights":[1.8996297E2,-6.2393223E4,2.4925405E5,-9.015619E4,8.154707E4,1.2600133E5,7.041787E5,-1.1307375E5,-5.4552418E4,8.739841E3,1.8568936E5,2.833859E4,2.5948836E5,5.305226E5,9.488747E5,-1.3538616E5,-9.974944E4,-9.966239E4,-1.7467197E4,-2.0611242E4,1.1214923E5,1.346599E5,4.5048425E5,-1.2259451E4,1.182986E5,1.7023166E5,5.072818E5,3.858242E5,8.509214E5,8.271733E5,1.2129849E6,-1.4666523E5,-1.3009293E5,-1.17890695E5,-8.899053E4,-1.224111E5,-8.3191266E4,-4.2351793E4,9.450248E3,-4.838818E4,3.0221033E4,9.241216E4,4.1485397E5,9.7978914E4,2.067508E5,3.544636E5,6.829983E5,-6.33988E4,2.8088893E4,4.848322E4,2.2520956E5,1.1664746E5,2.3886098E5,4.1961838E5,6.6771125E5,3.1863853E5,5.0027506E5,7.592681E5,1.2620318E6,6.7700444E5,1.1541791E6,1.1045965E6,1.3763105E5,-1.5224104E4,-1.4138986E4,-1.4046666E4,-1.2155593E4,-1.3335096E4,-1.1095781E4,-1.0116502E4,-7.053647E3,-1.4747394E4,-1.1405771E4,-9.310812E3,-6.5390596E3,-6.3134194E3,-1.9397639E3,-1.6820096E3,3.969365E3,-8.894951E3,-3.0477334E3,1.6999717E3,7.6196196E3,-1.3186785E3,1.2122397E4,6.624181E4,3.3465824E4,6.783099E3,1.4017903E4,1.6375159E4,2.6724832E4,2.9444588E4,4.2483535E4,5.245354E4,7.554735E4,-1.12691045E4,-4.6552905E3,5.180319E2,6.2475425E3,-1.2416971E3,1.0062367E4,1.7698666E4,3.318264E4,7.771289E3,1.6893766E4,1.9192873E4,3.1534943E4,3.493524E4,5.4081824E4,5.5283625E4,8.065869E4,2.7399889E4,4.0595793E4,4.2874844E4,6.02998E4,6.3771227E4,8.7898055E4,9.916608E4,1.3423561E5,5.7100684E4,7.7779086E4,1.018132E5,1.2931794E5,9.493268E4,1.3783486E5],"categories":[],"categories_nodes":[],"categories_segments":[],"categories_sizes":[],"default_left":[0,0,0,0,0,0,0,0,0,0,0,0,0,0,0,0,0,0,0,0,0,0,0,0,0,0,0,0,0,0,0,0,0,0,0,0,0,0,0,0,0,0,0,0,0,0,0,0,0,0,0,0,0,0,0,0,0,0,0,0,0,0,0,0,0,0,0,0,0,0,0,0,0,0,0,0,0,0,0,0,0,0,0,0,0,0,0,0,0,0,0,0,0,0,0,0,0,0,0,0,0,0,0,0,0,0,0,0,0,0,0,0,0,0,0,0,0,0,0,0,0,0,0,0,0],"id":7,"left_children":[1,3,5,7,9,11,13,15,17,19,21,23,25,27,29,31,33,35,37,39,41,43,45,47,49,51,53,55,57,59,61,63,65,67,69,71,73,75,77,79,81,83,85,87,89,91,93,95,97,99,101,103,105,107,109,111,113,115,117,119,121,123,-1,-1,-1,-1,-1,-1,-1,-1,-1,-1,-1,-1,-1,-1,-1,-1,-1,-1,-1,-1,-1,-1,-1,-1,-1,-1,-1,-1,-1,-1,-1,-1,-1,-1,-1,-1,-1,-1,-1,-1,-1,-1,-1,-1,-1,-1,-1,-1,-1,-1,-1,-1,-1,-1,-1,-1,-1,-1,-1,-1,-1,-1,-1],"loss_changes":[1.3669684E15,2.8008968E14,9.873724E14,4.793509E13,8.592873E13,1.8065532E14,1.5901512E14,1.0613334E13,3.849367E13,2.0249978E13,6.2947376E13,2.9233661E13,1.29410015E14,1.0157356E14,4.904262E13,7.7866415E11,4.3584355E12,3.8799241E12,8.4603495E12,7.3394443E12,8.774058E12,1.0321855E13,1.6569497E13,1.1383429E13,1.8567051E13,1.5807224E13,2.1518692E13,1.1497812E13,2.4776928E13,5.1713084E13,7.1363566E12,1.0378386E11,7.890996E11,8.78044E11,3.150585E12,8.955678E11,1.0574847E12,3.129605E12,4.821721E12,2.4390135E12,1.1153291E12,4.2185E12,1.5651391E12,3.2906957E12,3.3848117E12,2.1345107E12,2.1188617E12,2.0150485E12,2.429086E12,4.7865224E12,4.99524E12,4.9137383E12,6.713378E12,8.3698846E12,8.2646244E12,3.6229727E12,3.848685E12,7.602998E12,1.3400801E12,7.407946E12,5.018401E12,1.1400622E13,0E0,0E0,0E0,0E0,0E0,0E0,0E0,0E0,0E0,0E0,0E0,0E0,0E0,0E0,0E0,0E0,0E0,0E0,0E0,0E0,0E0,0E0,0E0,0E0,0E0,0E0,0E0,0E0,0E0,0E0,0E0,0E0,0E0,0E0,0E0,0E0,0E0,0E0,0E0,0E0,0E0,0E0,0E0,0E0,0E0,0E0,0E0,0E0,0E0,0E0,0E0,0E0,0E0,0E0,0E0,0E0,0E0,0E0,0E0,0E0,0E0,0E0,0E0],"parents":[2147483647,0,0,1,1,2,2,3,3,4,4,5,5,6,6,7,7,8,8,9,9,10,10,11,11,12,12,13,13,14,14,15,15,16,16,17,17,18,18,19,19,20,20,21,21,22,22,23,23,24,24,25,25,26,26,27,27,28,28,29,29,30,30,31,31,32,32,33,33,34,34,35,35,36,36,37,37,38,38,39,39,40,40,41,41,42,42,43,43,44,44,45,45,46,46,47,47,48,48,49,49,50,50,51,51,52,52,53,53,54,54,55,55,56,56,57,57,58,58,59,59,60,60,61,61],"right_children":[2,4,6,8,10,12,14,16,18,20,22,24,26,28,30,32,34,36,38,40,42,44,46,48,50,52,54,56,58,60,62,64,66,68,70,72,74,76,78,80,82,84,86,88,90,92,94,96,98,100,102,104,106,108,110,112,114,116,118,120,122,124,-1,-1,-1,-1,-1,-1,-1,-1,-1,-1,-1,-1,-1,-1,-1,-1,-1,-1,-1,-1,-1,-1,-1,-1,-1,-1,-1,-1,-1,-1,-1,-1,-1,-1,-1,-1,-1,-1,-1,-1,-1,-1,-1,-1,-1,-1,-1,-1,-1,-1,-1,-1,-1,-1,-1,-1,-1,-1,-1,-1,-1,-1,-1],"split_conditions":[4.5260108E-1,5.184955E-1,7.7044857E-1,-3.8450307E-1,-2.4498571E-1,-2.168015E-1,1.5365436E0,-5.211012E-1,-4.2316824E-1,1.8510876E0,2.2820394E0,1.8370426E0,2.0409524E0,2.4331112E0,1.8510876E0,-7.064662E-1,-7.171983E-1,-7.957518E-1,-8.400415E-2,-4.596278E-1,4.63657E0,1.2687668E0,3.7801633E0,-6.535856E-1,-5.437996E-1,1.0428668E0,3.5649114E0,1.5388429E0,4.63657E0,3.2858768E0,2.480969E0,-7.7113E-1,-8.1807196E-1,-8.674478E-1,-7.278576E-2,-1.0423537E0,3.4049E-2,-4.1170713E-2,-2.093853E-2,-7.601267E-1,1.3177286E0,-7.064662E-1,-3.922224E-1,8.7709524E-2,9.844163E-2,9.844163E-2,-8.879417E-3,-9.666813E-1,1.0428668E0,-8.124819E-1,3.2858768E0,2.214546E-1,2.6018044E-1,3.1279585E-1,2.309534E-1,9.5701E-1,1.0106705E0,9.248137E-1,6.0285056E-1,2.2126663E0,4.144445E0,3.0250268E0,1.3763105E5,-1.5224104E4,-1.4138986E4,-1.4046666E4,-1.2155593E4,-1.3335096E4,-1.1095781E4,-1.0116502E4,-7.053647E3,-1.4747394E4,-1.1405771E4,-9.310812E3,-6.5390596E3,-6.3134194E3,-1.9397639E3,-1.6820096E3,3.969365E3,-8.894951E3,-3.0477334E3,1.6999717E3,7.6196196E3,-1.3186785E3,1.2122397E4,6.624181E4,3.3465824E4,6.783099E3,1.4017903E4,1.6375159E4,2.6724832E4,2.9444588E4,4.2483535E4,5.245354E4,7.554735E4,-1.12691045E4,-4.6552905E3,5.180319E2,6.2475425E3,-1.2416971E3,1.0062367E4,1.7698666E4,3.318264E4,7.771289E3,1.6893766E4,1.9192873E4,3.1534943E4,3.493524E4,5.4081824E4,5.5283625E4,8.065869E4,2.7399889E4,4.0595793E4,4.2874844E4,6.02998E4,6.3771227E4,8.7898055E4,9.916608E4,1.3423561E5,5.7100684E4,7.7779086E4,1.018132E5,1.2931794E5,9.493268E4,1.3783486E5],"split_indices":[0,9,9,0,0,9,0,9,9,9,9,0,0,9,9,0,0,9,0,0,9,9,9,9,9,0,0,9,9,0,0,9,9,0,9,9,0,9,9,0,9,0,8,0,0,0,0,9,0,9,0,9,9,9,9,0,0,0,0,0,0,9,0,0,0,0,0,0,0,0,0,0,0,0,0,0,0,0,0,0,0,0,0,0,0,0,0,0,0,0,0,0,0,0,0,0,0,0,0,0,0,0,0,0,0,0,0,0,0,0,0,0,0,0,0,0,0,0,0,0,0,0,0,0,0],"split_type":[0,0,0,0,0,0,0,0,0,0,0,0,0,0,0,0,0,0,0,0,0,0,0,0,0,0,0,0,0,0,0,0,0,0,0,0,0,0,0,0,0,0,0,0,0,0,0,0,0,0,0,0,0,0,0,0,0,0,0,0,0,0,0,0,0,0,0,0,0,0,0,0,0,0,0,0,0,0,0,0,0,0,0,0,0,0,0,0,0,0,0,0,0,0,0,0,0,0,0,0,0,0,0,0,0,0,0,0,0,0,0,0,0,0,0,0,0,0,0,0,0,0,0,0,0],"sum_hessian":[8.7696E4,7.0086E4,1.761E4,5.8754E4,1.1332E4,1.3857E4,3.753E3,3.5744E4,2.301E4,6.67E3,4.662E3,8.003E3,5.854E3,2.197E3,1.556E3,1.3361E4,2.2383E4,1.0381E4,1.2629E4,5.196E3,1.474E3,3.91E3,7.52E2,5.515E3,2.488E3,4.305E3,1.549E3,1.515E3,6.82E2,1.068E3,4.88E2,4.259E3,9.102E3,8.329E3,1.4054E4,4.357E3,6.024E3,6.562E3,6.067E3,3.36E3,1.836E3,1.385E3,8.9E1,2.593E3,1.317E3,5.34E2,2.18E2,2.432E3,3.083E3,1.506E3,9.82E2,2.419E3,1.886E3,1.004E3,5.45E2,9.57E2,5.58E2,5.6E2,1.22E2,7.34E2,3.34E2,2.98E2,1.9E2,2.057E3,2.202E3,4.102E3,5E3,2.573E3,5.756E3,8.465E3,5.589E3,1.085E3,3.272E3,3.866E3,2.158E3,3.443E3,3.119E3,3.247E3,2.82E3,1.028E3,2.332E3,1.427E3,4.09E2,2.97E2,1.088E3,2E1,6.9E1,1.514E3,1.079E3,7.72E2,5.45E2,2.91E2,2.43E2,7.1E1,1.47E2,6.18E2,1.814E3,1.851E3,1.232E3,6.95E2,8.11E2,6.78E2,3.04E2,1.388E3,1.031E3,1.171E3,7.15E2,6.38E2,3.66E2,3.01E2,2.44E2,6.36E2,3.21E2,3.32E2,2.26E2,2.81E2,2.79E2,3.1E1,9.1E1,3.61E2,3.73E2,1.73E2,1.61E2,1.93E2,1.05E2],"tree_param":{"num_deleted":"0","num_feature":"10","num_nodes":"125","size_leaf_vector":"1"}},{"base_weights":[1.9229001E2,-5.390617E4,2.3390788E5,-7.668683E4,9.866752E4,1.23715305E5,6.684935E5,-1.01060195E5,-4.3207977E4,1.6765824E4,2.0068275E5,3.9956895E4,2.6594516E5,5.333323E5,9.093508E5,-1.1816324E5,-8.5289984E4,-7.492108E4,7.813618E3,-5.521584E3,1.3766588E5,1.6042598E5,5.2063784E5,1.2267516E4,1.6315653E5,1.9082061E5,5.284279E5,3.8243316E5,7.955613E5,7.8999344E5,1.1078475E6,-1.315452E5,-1.12845414E5,-9.7020586E4,-6.8637125E4,-9.927862E4,-5.170364E4,-1.7899547E4,3.79865E4,-5.290383E4,2.0709549E4,1.1024774E5,3.6078622E5,1.2178322E5,2.4765089E5,4.2656516E5,7.241128E5,-3.1122367E4,7.180631E4,5.2459137E4,2.5139034E5,1.398311E5,2.7741047E5,4.814853E5,7.7624694E5,3.116957E5,4.7661912E5,6.8352294E5,1.0540632E6,6.5512494E5,1.0625384E6,1.0273274E6,1.28069836E5,-1.3883382E4,-1.2740682E4,-1.2558289E4,-1.0422694E4,-1.1771519E4,-9.149208E3,-7.6716577E3,-3.778354E3,-1.2726257E4,-9.206187E3,-6.2775376E3,-2.1774822E3,-3.0742087E3,6.072245E2,1.8017891E3,7.019578E3,-9.803718E3,-3.9258503E3,1.5961528E2,6.0215815E3,2.9922842E3,1.6181624E4,2.861478E4,6.5128863E4,8.983386E3,1.6819904E4,1.9219764E4,3.1488896E4,3.473684E4,5.157902E4,6.2647062E4,8.799425E4,-6.8411494E3,-2.9827133E2,3.3965715E3,1.2133341E4,-1.0573307E4,7.760393E3,1.7906424E4,3.0241748E4,1.0027832E4,1.8092084E4,2.2449895E4,3.4773242E4,3.9575926E4,5.8315793E4,6.688018E4,9.291595E4,2.6346201E4,3.8619414E4,4.126224E4,5.6270195E4,5.7637895E4,8.501118E4,9.22189E4,1.18478875E5,5.9392008E4,7.6233414E4,9.655652E4,1.2458924E5,9.28244E4,1.3419606E5],"categories":[],"categories_nodes":[],"categories_segments":[],"categories_sizes":[],"default_left":[0,0,0,0,0,0,0,0,0,0,0,0,0,0,0,0,0,0,0,0,0,0,0,0,0,0,0,0,0,0,0,0,0,0,0,0,0,0,0,0,0,0,0,0,0,0,0,0,0,0,0,0,0,0,0,0,0,0,0,0,0,0,0,0,0,0,0,0,0,0,0,0,0,0,0,0,0,0,0,0,0,0,0,0,0,0,0,0,0,0,0,0,0,0,0,0,0,0,0,0,0,0,0,0,0,0,0,0,0,0,0,0,0,0,0,0,0,0,0,0,0,0,0,0,0],"id":8,"left_children":[1,3,5,7,9,11,13,15,17,19,21,23,25,27,29,31,33,35,37,39,41,43,45,47,49,51,53,55,57,59,61,63,65,67,69,71,73,75,77,79,81,83,85,87,89,91,93,95,97,99,101,103,105,107,109,111,113,115,117,119,121,123,-1,-1,-1,-1,-1,-1,-1,-1,-1,-1,-1,-1,-1,-1,-1,-1,-1,-1,-1,-1,-1,-1,-1,-1,-1,-1,-1,-1,-1,-1,-1,-1,-1,-1,-1,-1,-1,-1,-1,-1,-1,-1,-1,-1,-1,-1,-1,-1,-1,-1,-1,-1,-1,-1,-1,-1,-1,-1,-1,-1,-1,-1,-1],"loss_changes":[1.1088231E15,2.4752813E14,7.893049E14,5.0556966E13,7.729915E13,1.5665657E14,1.0805198E14,9.661227E12,4.224309E13,1.3831879E13,5.2983555E13,2.8236914E13,9.600903E13,8.429665E13,2.7484167E13,1.2090836E12,3.6383322E12,9.099744E12,7.7652904E12,5.389023E12,4.8481425E12,1.2309653E13,8.4961835E12,1.7465892E13,1.482327E13,1.6699126E13,1.2236731E13,8.905732E12,2.1869973E13,2.6908977E13,4.905591E12,1.2966271E11,1.3388218E12,1.2414553E12,1.920295E12,1.5748185E12,2.730729E12,1.663855E12,2.9605531E12,9.4765344E11,2.1073849E12,2.94857E12,1.7000238E12,3.7501188E12,4.1266625E12,2.0608629E12,1.6397799E12,4.1036203E12,5.3371617E12,2.69316E12,3.0644004E12,3.862866E12,5.146E12,7.735622E12,2.188051E12,2.697466E12,2.9685606E12,9.273405E12,2.941415E12,2.860918E12,3.188812E12,8.418572E12,0E0,0E0,0E0,0E0,0E0,0E0,0E0,0E0,0E0,0E0,0E0,0E0,0E0,0E0,0E0,0E0,0E0,0E0,0E0,0E0,0E0,0E0,0E0,0E0,0E0,0E0,0E0,0E0,0E0,0E0,0E0,0E0,0E0,0E0,0E0,0E0,0E0,0E0,0E0,0E0,0E0,0E0,0E0,0E0,0E0,0E0,0E0,0E0,0E0,0E0,0E0,0E0,0E0,0E0,0E0,0E0,0E0,0E0,0E0,0E0,0E0,0E0,0E0],"parents":[2147483647,0,0,1,1,2,2,3,3,4,4,5,5,6,6,7,7,8,8,9,9,10,10,11,11,12,12,13,13,14,14,15,15,16,16,17,17,18,18,19,19,20,20,21,21,22,22,23,23,24,24,25,25,26,26,27,27,28,28,29,29,30,30,31,31,32,32,33,33,34,34,35,35,36,36,37,37,38,38,39,39,40,40,41,41,42,42,43,43,44,44,45,45,46,46,47,47,48,48,49,49,50,50,51,51,52,52,53,53,54,54,55,55,56,56,57,57,58,58,59,59,60,60,61,61],"right_children":[2,4,6,8,10,12,14,16,18,20,22,24,26,28,30,32,34,36,38,40,42,44,46,48,50,52,54,56,58,60,62,64,66,68,70,72,74,76,78,80,82,84,86,88,90,92,94,96,98,100,102,104,106,108,110,112,114,116,118,120,122,124,-1,-1,-1,-1,-1,-1,-1,-1,-1,-1,-1,-1,-1,-1,-1,-1,-1,-1,-1,-1,-1,-1,-1,-1,-1,-1,-1,-1,-1,-1,-1,-1,-1,-1,-1,-1,-1,-1,-1,-1,-1,-1,-1,-1,-1,-1,-1,-1,-1,-1,-1,-1,-1,-1,-1,-1,-1,-1,-1,-1,-1,-1,-1],"split_conditions":[5.062616E-1,7.0009047E-1,8.245501E-1,-4.059673E-1,-2.557178E-1,-1.2463125E-1,1.8370426E0,-3.0464834E-1,-1.690694E-1,2.4331112E0,3.0250268E0,2.5453615E0,2.480969E0,2.2820394E0,1.6875685E0,-7.279304E-1,-6.3134146E-1,-6.097363E-1,-5.1807836E-2,-6.3134146E-1,4.63657E0,1.6148177E0,4.63657E0,-4.994794E-1,-6.535856E-1,1.3540978E0,4.4878726E0,1.0428668E0,3.7801633E0,3.5649114E0,2.910253E0,-8.3525145E-1,-7.839416E-1,-8.781799E-1,2.1173643E-1,-9.966474E-1,8.7709524E-2,3.0055088E-1,2.5125328E-1,-8.567157E-1,1.4802302E0,-5.991452E-1,7.889799E-1,1.1990584E-1,9.844163E-2,1.4137004E-1,2.0576267E-1,-7.901093E-1,1.1823841E0,-1.0708146E0,-4.3770424E-1,2.5125328E-1,3.0055088E-1,3.0055088E-1,3.478332E-1,1.4802302E0,1.4802302E0,1.1823841E0,4.63657E0,2.7492714E0,4.4878726E0,3.0250268E0,1.28069836E5,-1.3883382E4,-1.2740682E4,-1.2558289E4,-1.0422694E4,-1.1771519E4,-9.149208E3,-7.6716577E3,-3.778354E3,-1.2726257E4,-9.206187E3,-6.2775376E3,-2.1774822E3,-3.0742087E3,6.072245E2,1.8017891E3,7.019578E3,-9.803718E3,-3.9258503E3,1.5961528E2,6.0215815E3,2.9922842E3,1.6181624E4,2.861478E4,6.5128863E4,8.983386E3,1.6819904E4,1.9219764E4,3.1488896E4,3.473684E4,5.157902E4,6.2647062E4,8.799425E4,-6.8411494E3,-2.9827133E2,3.3965715E3,1.2133341E4,-1.0573307E4,7.760393E3,1.7906424E4,3.0241748E4,1.0027832E4,1.8092084E4,2.2449895E4,3.4773242E4,3.9575926E4,5.8315793E4,6.688018E4,9.291595E4,2.6346201E4,3.8619414E4,4.126224E4,5.6270195E4,5.7637895E4,8.501118E4,9.22189E4,1.18478875E5,5.9392008E4,7.6233414E4,9.655652E4,1.2458924E5,9.28244E4,1.3419606E5],"split_indices":[0,9,9,0,0,9,0,9,9,9,9,0,0,9,9,0,0,9,0,0,9,9,9,9,9,0,0,0,9,0,0,0,9,0,9,9,0,9,9,0,9,0,2,0,0,0,0,9,0,9,9,9,9,9,9,9,9,0,9,0,0,9,0,0,0,0,0,0,0,0,0,0,0,0,0,0,0,0,0,0,0,0,0,0,0,0,0,0,0,0,0,0,0,0,0,0,0,0,0,0,0,0,0,0,0,0,0,0,0,0,0,0,0,0,0,0,0,0,0,0,0,0,0,0,0],"split_type":[0,0,0,0,0,0,0,0,0,0,0,0,0,0,0,0,0,0,0,0,0,0,0,0,0,0,0,0,0,0,0,0,0,0,0,0,0,0,0,0,0,0,0,0,0,0,0,0,0,0,0,0,0,0,0,0,0,0,0,0,0,0,0,0,0,0,0,0,0,0,0,0,0,0,0,0,0,0,0,0,0,0,0,0,0,0,0,0,0,0,0,0,0,0,0,0,0,0,0,0,0,0,0,0,0,0,0,0,0,0,0,0,0,0,0,0,0,0,0,0,0,0,0,0,0],"sum_hessian":[8.7696E4,7.1213E4,1.6483E4,6.1962E4,9.251E3,1.315E4,3.333E3,3.5856E4,2.6106E4,5.132E3,4.119E3,8.277E3,4.873E3,2.137E3,1.196E3,1.7198E4,1.8658E4,1.6099E4,1.0007E4,4.334E3,7.98E2,3.66E3,4.59E2,6.759E3,1.518E3,3.79E3,1.083E3,1.358E3,7.79E2,7.5E2,4.46E2,4.884E3,1.2314E4,1.0944E4,7.714E3,7.855E3,8.244E3,5.403E3,4.604E3,1.544E3,2.79E3,7.12E2,8.6E1,2.538E3,1.122E3,3.16E2,1.43E2,3.91E3,2.849E3,6.74E2,8.44E2,2.387E3,1.403E3,9.13E2,1.7E2,7.78E2,5.8E2,5.46E2,2.33E2,5.04E2,2.46E2,3.09E2,1.37E2,1.757E3,3.127E3,4.964E3,7.35E3,2.303E3,8.641E3,6.112E3,1.602E3,1.607E3,6.248E3,6.017E3,2.227E3,3.518E3,1.885E3,2.843E3,1.761E3,3.57E2,1.187E3,1.881E3,9.09E2,2.79E2,4.33E2,7E1,1.6E1,1.505E3,1.033E3,6.17E2,5.05E2,1.7E2,1.46E2,9.1E1,5.2E1,1.681E3,2.229E3,1.616E3,1.233E3,9.2E1,5.82E2,3.51E2,4.93E2,1.218E3,1.169E3,8.03E2,6E2,4.98E2,4.15E2,1.03E2,6.7E1,4.75E2,3.03E2,3.36E2,2.44E2,3.35E2,2.11E2,1.2E2,1.13E2,3.25E2,1.79E2,1.65E2,8.1E1,2.38E2,7.1E1],"tree_param":{"num_deleted":"0","num_feature":"10","num_nodes":"125","size_leaf_vector":"1"}},{"base_weights":[1.9515186E2,-3.834158E4,2.6816975E5,-5.973178E4,1.4813758E5,1.2230204E5,6.074348E5,-8.073322E4,-6.6195903E3,5.543842E4,3.0003403E5,2.7443982E4,2.1764625E5,4.4812488E5,7.7344194E5,-9.7927016E4,-5.84774E4,-5.904227E4,3.9680742E4,3.5320605E4,2.2128684E5,2.4165805E5,6.4051975E5,7.413815E3,1.3293933E5,1.6517631E5,3.956154E5,3.5318122E5,7.179116E5,6.7476506E5,1.0047425E6,-1.08307586E5,-8.399293E4,-7.813427E4,-2.447928E4,-7.9282445E4,-3.6282453E4,1.6144244E4,8.716761E4,-4.216043E3,9.704842E4,1.1251994E5,3.1229056E5,1.9564083E5,3.4684228E5,5.370702E5,7.908792E5,-4.6276168E4,3.6665594E4,-1.4317142E4,1.77395E5,1.284786E5,2.2072002E5,3.5785528E5,5.621193E5,2.935823E5,4.5804816E5,6.5884994E5,9.000718E4,5.541265E5,9.511522E5,9.277318E5,1.1475405E6,-1.1454233E4,-1.0034786E4,-1.00963125E4,-6.972064E3,-9.277948E3,-6.6833516E3,-3.794186E3,-1.0144597E1,-1.1669683E4,-7.2281064E3,-4.9583325E3,-1.3539404E3,-7.7769916E2,4.484156E3,5.430109E3,1.3571573E4,-2.599656E3,3.7216555E3,7.1617656E3,1.4278136E4,9.219315E3,4.961276E4,2.5303533E4,5.002775E4,1.5683841E4,2.5827092E4,2.8063178E4,4.1370137E4,4.0521086E4,6.0142895E4,5.8545906E4,8.868869E4,-1.2378669E4,-2.9973884E3,7.911103E2,5.9904487E3,-1.0890289E4,3.561554E3,1.4654924E4,2.681824E4,9.705452E3,1.7220812E4,1.8160453E4,2.8547312E4,2.9152363E4,4.3158875E4,4.6064523E4,6.3789477E4,2.6762781E4,3.770631E4,4.209455E4,5.4997363E4,6.2376258E4,8.1301E4,4.7326105E4,6.375172E4,8.42186E4,1.12272914E5,8.079299E4,1.12495414E5,1.0569695E5,1.24463516E5],"categories":[],"categories_nodes":[],"categories_segments":[],"categories_sizes":[],"default_left":[0,0,0,0,0,0,0,0,0,0,0,0,0,0,0,0,0,0,0,0,0,0,0,0,0,0,0,0,0,0,0,0,0,0,0,0,0,0,0,0,0,0,0,0,0,0,0,0,0,0,0,0,0,0,0,0,0,0,0,0,0,0,0,0,0,0,0,0,0,0,0,0,0,0,0,0,0,0,0,0,0,0,0,0,0,0,0,0,0,0,0,0,0,0,0,0,0,0,0,0,0,0,0,0,0,0,0,0,0,0,0,0,0,0,0,0,0,0,0,0,0,0,0,0,0],"id":9,"left_children":[1,3,5,7,9,11,13,15,17,19,21,23,25,27,29,31,33,35,37,39,41,43,45,47,49,51,53,55,57,59,61,63,65,67,69,71,73,75,77,79,81,83,85,87,89,91,93,95,97,99,101,103,105,107,109,111,113,115,-1,117,119,121,123,-1,-1,-1,-1,-1,-1,-1,-1,-1,-1,-1,-1,-1,-1,-1,-1,-1,-1,-1,-1,-1,-1,-1,-1,-1,-1,-1,-1,-1,-1,-1,-1,-1,-1,-1,-1,-1,-1,-1,-1,-1,-1,-1,-1,-1,-1,-1,-1,-1,-1,-1,-1,-1,-1,-1,-1,-1,-1,-1,-1,-1,-1],"loss_changes":[9.056453E14,3.058402E14,5.4557842E14,7.672228E13,1.1107988E14,6.9742644E13,8.73238E13,1.885645E13,4.7313083E13,1.6344409E13,5.927501E13,8.170331E12,3.5848716E13,4.313751E13,3.6342604E13,4.0130262E12,1.4357111E13,4.2085017E12,1.1567643E13,1.0670323E13,5.2109047E12,1.2294243E13,6.3726074E12,5.107482E12,4.0416596E12,6.029547E12,5.3001406E12,7.7092146E12,4.1408015E12,3.748389E13,4.246951E12,7.791507E11,2.8693653E12,2.246939E12,2.5838244E12,1.258891E12,1.3016005E12,4.7521297E12,5.465564E12,2.406828E12,1.9750548E12,1.8490545E12,3.0815048E12,4.2828122E12,3.3190702E12,1.9797031E12,2.9518253E12,1.4456374E12,1.4061344E12,6.8397905E11,1.2880917E12,2.4457825E12,2.9394563E12,3.3760372E12,9.364371E11,1.6389495E12,1.3135218E12,1.3103173E12,0E0,5.066065E12,5.5046046E12,6.6283257E12,1.3547602E11,0E0,0E0,0E0,0E0,0E0,0E0,0E0,0E0,0E0,0E0,0E0,0E0,0E0,0E0,0E0,0E0,0E0,0E0,0E0,0E0,0E0,0E0,0E0,0E0,0E0,0E0,0E0,0E0,0E0,0E0,0E0,0E0,0E0,0E0,0E0,0E0,0E0,0E0,0E0,0E0,0E0,0E0,0E0,0E0,0E0,0E0,0E0,0E0,0E0,0E0,0E0,0E0,0E0,0E0,0E0,0E0,0E0,0E0,0E0,0E0,0E0,0E0],"parents":[2147483647,0,0,1,1,2,2,3,3,4,4,5,5,6,6,7,7,8,8,9,9,10,10,11,11,12,12,13,13,14,14,15,15,16,16,17,17,18,18,19,19,20,20,21,21,22,22,23,23,24,24,25,25,26,26,27,27,28,28,29,29,30,30,31,31,32,32,33,33,34,34,35,35,36,36,37,37,38,38,39,39,40,40,41,41,42,42,43,43,44,44,45,45,46,46,47,47,48,48,49,49,50,50,51,51,52,52,53,53,54,54,55,55,56,56,57,57,59,59,60,60,61,61,62,62],"right_children":[2,4,6,8,10,12,14,16,18,20,22,24,26,28,30,32,34,36,38,40,42,44,46,48,50,52,54,56,58,60,62,64,66,68,70,72,74,76,78,80,82,84,86,88,90,92,94,96,98,100,102,104,106,108,110,112,114,116,-1,118,120,122,124,-1,-1,-1,-1,-1,-1,-1,-1,-1,-1,-1,-1,-1,-1,-1,-1,-1,-1,-1,-1,-1,-1,-1,-1,-1,-1,-1,-1,-1,-1,-1,-1,-1,-1,-1,-1,-1,-1,-1,-1,-1,-1,-1,-1,-1,-1,-1,-1,-1,-1,-1,-1,-1,-1,-1,-1,-1,-1,-1,-1,-1,-1],"split_conditions":[9.5701E-1,9.441955E-1,4.271699E-1,-1.3766468E-1,-5.1807836E-2,-3.94007E-1,1.2233678E0,-1.8173425E-1,-3.3617443E-1,3.0250268E0,3.2925766E0,3.2858768E0,2.910253E0,3.0712347E0,2.480969E0,-5.739431E-1,-5.2402043E-1,-6.603749E-1,3.0055088E-1,-3.9523518E-1,-4.7035992E-1,1.9400634E0,4.63657E0,-7.957518E-1,-9.196067E-1,1.783382E0,4.4878726E0,1.9550958E0,4.4878726E0,2.79088E0,1.9400634E0,-5.3475255E-1,-5.562168E-1,-7.708588E-1,3.3621964E-1,-1.0423537E0,3.5601214E-1,2.594232E-1,3.2381582E-1,1.7590876E0,1.7590876E0,7.889799E-1,4.63657E0,4.0967265E-1,3.8820845E-1,3.2381582E-1,2.0576267E-1,-1.0874432E0,1.5365436E0,-1.1265293E0,4.4878726E0,1.2880809E-2,3.2907102E-2,-2.093853E-2,-2.093853E-2,9.441955E-1,9.441955E-1,1.0141323E0,9.000718E4,1.8510876E0,3.7801633E0,3.7688215E0,3.0712347E0,-1.1454233E4,-1.0034786E4,-1.00963125E4,-6.972064E3,-9.277948E3,-6.6833516E3,-3.794186E3,-1.0144597E1,-1.1669683E4,-7.2281064E3,-4.9583325E3,-1.3539404E3,-7.7769916E2,4.484156E3,5.430109E3,1.3571573E4,-2.599656E3,3.7216555E3,7.1617656E3,1.4278136E4,9.219315E3,4.961276E4,2.5303533E4,5.002775E4,1.5683841E4,2.5827092E4,2.8063178E4,4.1370137E4,4.0521086E4,6.0142895E4,5.8545906E4,8.868869E4,-1.2378669E4,-2.9973884E3,7.911103E2,5.9904487E3,-1.0890289E4,3.561554E3,1.4654924E4,2.681824E4,9.705452E3,1.7220812E4,1.8160453E4,2.8547312E4,2.9152363E4,4.3158875E4,4.6064523E4,6.3789477E4,2.6762781E4,3.770631E4,4.209455E4,5.4997363E4,6.2376258E4,8.1301E4,4.7326105E4,6.375172E4,8.42186E4,1.12272914E5,8.079299E4,1.12495414E5,1.0569695E5,1.24463516E5],"split_indices":[0,9,9,0,0,9,9,9,9,9,9,0,0,0,0,9,0,9,9,0,0,9,9,9,9,0,0,0,0,9,9,0,0,0,9,9,0,0,0,9,9,2,9,0,0,0,0,9,0,9,0,9,9,9,9,9,9,9,0,9,9,0,0,0,0,0,0,0,0,0,0,0,0,0,0,0,0,0,0,0,0,0,0,0,0,0,0,0,0,0,0,0,0,0,0,0,0,0,0,0,0,0,0,0,0,0,0,0,0,0,0,0,0,0,0,0,0,0,0,0,0,0,0,0,0],"split_type":[0,0,0,0,0,0,0,0,0,0,0,0,0,0,0,0,0,0,0,0,0,0,0,0,0,0,0,0,0,0,0,0,0,0,0,0,0,0,0,0,0,0,0,0,0,0,0,0,0,0,0,0,0,0,0,0,0,0,0,0,0,0,0,0,0,0,0,0,0,0,0,0,0,0,0,0,0,0,0,0,0,0,0,0,0,0,0,0,0,0,0,0,0,0,0,0,0,0,0,0,0,0,0,0,0,0,0,0,0,0,0,0,0,0,0,0,0,0,0,0,0,0,0,0,0],"sum_hessian":[8.7696E4,7.6671E4,1.1025E4,6.8782E4,7.889E3,7.711E3,3.314E3,4.9291E4,1.9491E4,4.9E3,2.989E3,3.866E3,3.845E3,1.693E3,1.621E3,2.7806E4,2.1485E4,9.141E3,1.035E4,4.371E3,5.29E2,2.553E3,4.36E2,3.25E3,6.16E2,2.971E3,8.74E2,1.254E3,4.39E2,1.139E3,4.82E2,1.5931E4,1.1875E4,1.3613E4,7.872E3,4.837E3,4.304E3,6.921E3,3.429E3,2.665E3,1.706E3,2.42E2,2.87E2,1.778E3,7.75E2,2.61E2,1.75E2,1.146E3,2.104E3,1.43E2,4.73E2,1.791E3,1.18E3,7.15E2,1.59E2,8.02E2,4.52E2,3.35E2,1.04E2,7.95E2,3.44E2,3.18E2,1.64E2,8.926E3,7.005E3,5.422E3,6.453E3,5.926E3,7.687E3,5.071E3,2.801E3,7.6E2,4.077E3,2.715E3,1.589E3,3.775E3,3.146E3,2.046E3,1.383E3,1.747E3,9.18E2,1.098E3,6.08E2,2.31E2,1.1E1,2.2E2,6.7E1,1.1E3,6.78E2,3.92E2,3.83E2,8.8E1,1.73E2,5.8E1,1.17E2,1.98E2,9.48E2,9.41E2,1.163E3,4.9E1,9.4E1,3.55E2,1.18E2,1.044E3,7.47E2,7.38E2,4.42E2,3.79E2,3.36E2,7.1E1,8.8E1,6.15E2,1.87E2,3.26E2,1.26E2,2.77E2,5.8E1,4.07E2,3.88E2,2.14E2,1.3E2,2.01E2,1.17E2,9.1E1,7.3E1],"tree_param":{"num_deleted":"0","num_feature":"10","num_nodes":"125","size_leaf_vector":"1"}},{"base_weights":[1.9687375E2,-3.450149E4,2.4148044E5,-5.639521E4,1.1342693E5,1.19976234E5,5.719281E5,-7.596949E4,-1.444464E4,4.6029973E4,2.580519E5,2.6775629E4,2.0983281E5,4.2958603E5,7.050581E5,-9.181359E4,-6.0115098E4,-5.9504867E4,2.2748125E4,2.955482E4,2.1846445E5,2.0275214E5,5.519455E5,8.6911045E3,1.2250341E5,1.6148922E5,3.8353734E5,3.385152E5,6.788498E5,6.1101256E5,9.028226E5,-1.01545984E5,-8.315819E4,-7.282416E4,-3.322988E4,-8.008653E4,-4.4680426E4,2.274664E3,5.8277895E4,-6.8388784E3,8.970694E4,1.01510055E5,2.9997156E5,1.574129E5,2.892173E5,4.6815822E5,7.304137E5,-4.3386797E4,3.4283246E4,2.2601299E4,1.8043002E5,1.2751324E5,2.2324397E5,3.0837272E5,4.8101775E5,2.7940047E5,4.3628256E5,6.0144506E5,7.937932E5,5.2698544E5,9.4660475E5,8.4339006E5,1.0815246E5,-1.1242459E4,-9.798307E3,-9.60684E3,-7.218472E3,-9.263621E3,-6.770721E3,-4.780367E3,-1.7969504E3,-1.1480908E4,-7.4012554E3,-5.564983E3,-2.437935E3,-1.8878922E3,2.7316887E3,2.7561672E3,9.667891E3,-4.1221953E3,1.5150999E3,6.2576846E3,1.3563883E4,8.301358E3,4.506493E4,2.3990615E4,4.760294E4,1.2521627E4,1.9735133E4,2.480358E4,3.5019508E4,3.815841E4,5.2373137E4,6.220884E4,8.863624E4,-1.1705535E4,-2.9292483E3,1.6509036E3,6.6434917E3,-9.318768E3,5.7405786E3,1.5160635E4,2.6952521E4,1.0078891E4,1.8377574E4,1.8146328E4,2.8945129E4,2.8078729E4,4.365262E4,4.3513465E4,6.1940727E4,2.5064451E4,3.4854777E4,3.9845652E4,5.1032445E4,5.5484695E4,7.2374055E4,7.290268E4,8.773989E4,4.348315E4,6.2399383E4,8.393522E4,1.0690502E5,7.467497E4,1.08617375E5],"categories":[],"categories_nodes":[],"categories_segments":[],"categories_sizes":[],"default_left":[0,0,0,0,0,0,0,0,0,0,0,0,0,0,0,0,0,0,0,0,0,0,0,0,0,0,0,0,0,0,0,0,0,0,0,0,0,0,0,0,0,0,0,0,0,0,0,0,0,0,0,0,0,0,0,0,0,0,0,0,0,0,0,0,0,0,0,0,0,0,0,0,0,0,0,0,0,0,0,0,0,0,0,0,0,0,0,0,0,0,0,0,0,0,0,0,0,0,0,0,0,0,0,0,0,0,0,0,0,0,0,0,0,0,0,0,0,0,0,0,0,0,0,0,0],"id":10,"left_children":[1,3,5,7,9,11,13,15,17,19,21,23,25,27,29,31,33,35,37,39,41,43,45,47,49,51,53,55,57,59,61,63,65,67,69,71,73,75,77,79,81,83,85,87,89,91,93,95,97,99,101,103,105,107,109,111,113,115,117,119,121,123,-1,-1,-1,-1,-1,-1,-1,-1,-1,-1,-1,-1,-1,-1,-1,-1,-1,-1,-1,-1,-1,-1,-1,-1,-1,-1,-1,-1,-1,-1,-1,-1,-1,-1,-1,-1,-1,-1,-1,-1,-1,-1,-1,-1,-1,-1,-1,-1,-1,-1,-1,-1,-1,-1,-1,-1,-1,-1,-1,-1,-1,-1,-1],"loss_changes":[7.342203E14,2.483243E14,4.4263383E14,5.484202E13,9.634001E13,6.7519486E13,5.5864975E13,1.1433807E13,3.561453E13,1.9152467E13,5.095264E13,6.852721E12,3.4409785E13,3.2345617E13,2.7904738E13,1.910086E12,7.776055E12,2.9282408E12,8.4684597E12,1.3479258E13,5.574727E12,1.03275E13,7.0898837E12,4.440994E12,3.6359394E12,6.712975E12,6.3947533E12,5.9639144E12,2.930208E12,2.8827955E13,4.3026177E12,4.043309E11,1.701604E12,1.5607173E12,1.6246741E12,8.397584E11,1.2430386E12,3.913652E12,5.017434E12,2.9017018E12,2.8837958E12,1.5318455E12,3.5447426E12,2.210155E12,2.1957769E12,1.4407686E12,2.100843E12,1.1366333E12,1.2755683E12,9.403039E11,9.812218E11,3.1013984E12,3.0981562E12,1.6697566E12,2.1878245E12,1.222992E12,9.029414E11,9.262449E11,1.7799787E11,7.184373E12,1.8211165E12,7.9404886E12,0E0,0E0,0E0,0E0,0E0,0E0,0E0,0E0,0E0,0E0,0E0,0E0,0E0,0E0,0E0,0E0,0E0,0E0,0E0,0E0,0E0,0E0,0E0,0E0,0E0,0E0,0E0,0E0,0E0,0E0,0E0,0E0,0E0,0E0,0E0,0E0,0E0,0E0,0E0,0E0,0E0,0E0,0E0,0E0,0E0,0E0,0E0,0E0,0E0,0E0,0E0,0E0,0E0,0E0,0E0,0E0,0E0,0E0,0E0,0E0,0E0,0E0,0E0],"parents":[2147483647,0,0,1,1,2,2,3,3,4,4,5,5,6,6,7,7,8,8,9,9,10,10,11,11,12,12,13,13,14,14,15,15,16,16,17,17,18,18,19,19,20,20,21,21,22,22,23,23,24,24,25,25,26,26,27,27,28,28,29,29,30,30,31,31,32,32,33,33,34,34,35,35,36,36,37,37,38,38,39,39,40,40,41,41,42,42,43,43,44,44,45,45,46,46,47,47,48,48,49,49,50,50,51,51,52,52,53,53,54,54,55,55,56,56,57,57,58,58,59,59,60,60,61,61],"right_children":[2,4,6,8,10,12,14,16,18,20,22,24,26,28,30,32,34,36,38,40,42,44,46,48,50,52,54,56,58,60,62,64,66,68,70,72,74,76,78,80,82,84,86,88,90,92,94,96,98,100,102,104,106,108,110,112,114,116,118,120,122,124,-1,-1,-1,-1,-1,-1,-1,-1,-1,-1,-1,-1,-1,-1,-1,-1,-1,-1,-1,-1,-1,-1,-1,-1,-1,-1,-1,-1,-1,-1,-1,-1,-1,-1,-1,-1,-1,-1,-1,-1,-1,-1,-1,-1,-1,-1,-1,-1,-1,-1,-1,-1,-1,-1,-1,-1,-1,-1,-1,-1,-1,-1,-1],"split_conditions":[9.5701E-1,7.432186E-1,5.524164E-1,-1.9132519E-1,5.551321E-2,-3.7932327E-1,1.2687668E0,-2.782629E-1,-3.94007E-1,3.0250268E0,3.0250268E0,3.2858768E0,3.0712347E0,3.0712347E0,2.3199873E0,-7.2336227E-1,-5.132883E-1,-7.6524067E-1,2.916195E-1,-3.5230675E-1,-4.7035992E-1,1.6148177E0,4.63657E0,-8.072441E-1,-8.2455313E-1,1.08186066E-1,9.246107E-2,1.9550958E0,4.144445E0,3.2925766E0,3.7688215E0,-9.8647034E-1,-5.991452E-1,-8.3525145E-1,6.2366508E-2,-1.0874432E0,2.916195E-1,6.949799E-2,5.5129636E-2,-6.420736E-1,1.5388429E0,7.889799E-1,4.63657E0,4.0967265E-1,4.955295E-1,4.0967265E-1,5.3845793E-1,-1.1057669E0,1.9550958E0,-1.1057669E0,4.4878726E0,1.9550958E0,1.8370426E0,4.4878726E0,4.4878726E0,9.7594345E-1,1.0141323E0,1.0141323E0,9.441955E-1,2.0329323E0,1.4614189E0,2.2820394E0,1.0815246E5,-1.1242459E4,-9.798307E3,-9.60684E3,-7.218472E3,-9.263621E3,-6.770721E3,-4.780367E3,-1.7969504E3,-1.1480908E4,-7.4012554E3,-5.564983E3,-2.437935E3,-1.8878922E3,2.7316887E3,2.7561672E3,9.667891E3,-4.1221953E3,1.5150999E3,6.2576846E3,1.3563883E4,8.301358E3,4.506493E4,2.3990615E4,4.760294E4,1.2521627E4,1.9735133E4,2.480358E4,3.5019508E4,3.815841E4,5.2373137E4,6.220884E4,8.863624E4,-1.1705535E4,-2.9292483E3,1.6509036E3,6.6434917E3,-9.318768E3,5.7405786E3,1.5160635E4,2.6952521E4,1.0078891E4,1.8377574E4,1.8146328E4,2.8945129E4,2.8078729E4,4.365262E4,4.3513465E4,6.1940727E4,2.5064451E4,3.4854777E4,3.9845652E4,5.1032445E4,5.5484695E4,7.2374055E4,7.290268E4,8.773989E4,4.348315E4,6.2399383E4,8.393522E4,1.0690502E5,7.467497E4,1.08617375E5],"split_indices":[0,9,9,0,0,9,9,9,9,9,9,0,0,0,0,9,0,9,0,0,0,9,9,9,9,9,9,0,0,9,0,9,0,0,9,9,0,9,9,0,9,2,9,0,0,0,0,9,0,9,0,0,0,0,0,9,9,9,9,9,0,9,0,0,0,0,0,0,0,0,0,0,0,0,0,0,0,0,0,0,0,0,0,0,0,0,0,0,0,0,0,0,0,0,0,0,0,0,0,0,0,0,0,0,0,0,0,0,0,0,0,0,0,0,0,0,0,0,0,0,0,0,0,0,0],"split_type":[0,0,0,0,0,0,0,0,0,0,0,0,0,0,0,0,0,0,0,0,0,0,0,0,0,0,0,0,0,0,0,0,0,0,0,0,0,0,0,0,0,0,0,0,0,0,0,0,0,0,0,0,0,0,0,0,0,0,0,0,0,0,0,0,0,0,0,0,0,0,0,0,0,0,0,0,0,0,0,0,0,0,0,0,0,0,0,0,0,0,0,0,0,0,0,0,0,0,0,0,0,0,0,0,0,0,0,0,0,0,0,0,0,0,0,0,0,0,0,0,0,0,0,0,0],"sum_hessian":[8.7696E4,7.6671E4,1.1025E4,6.6787E4,9.884E3,8.062E3,2.963E3,4.5538E4,2.1249E4,6.743E3,3.141E3,3.958E3,4.104E3,1.434E3,1.529E3,2.2774E4,2.2764E4,9.608E3,1.1641E4,6.156E3,5.87E2,2.645E3,4.96E2,3.33E3,6.28E2,3.212E3,8.92E2,1.052E3,3.82E2,1.039E3,4.9E2,1.0715E4,1.2059E4,1.5456E4,7.308E3,4.021E3,5.587E3,7.386E3,4.255E3,3.836E3,2.32E3,2.42E2,3.45E2,1.737E3,9.08E2,3.4E2,1.56E2,1.097E3,2.233E3,2.31E2,3.97E2,2.074E3,1.138E3,5.06E2,3.86E2,6.58E2,3.94E2,2.32E2,1.5E2,8.33E2,2.06E2,3.72E2,1.18E2,2.636E3,8.079E3,5.537E3,6.522E3,3.169E3,1.2287E4,3.737E3,3.571E3,5.96E2,3.425E3,3.626E3,1.961E3,4.004E3,3.382E3,2.365E3,1.89E3,1.496E3,2.34E3,1.46E3,8.6E2,2.31E2,1.1E1,2.59E2,8.6E1,9.64E2,7.73E2,5.45E2,3.63E2,1.36E2,2.04E2,9.5E1,6.1E1,1.75E2,9.22E2,1.439E3,7.94E2,5.3E1,1.78E2,3.02E2,9.5E1,1.408E3,6.66E2,7E2,4.38E2,4.19E2,8.7E1,2.93E2,9.3E1,4.68E2,1.9E2,2.65E2,1.29E2,1.72E2,6E1,9E1,6E1,4.3E2,4.03E2,1.14E2,9.2E1,2.69E2,1.03E2],"tree_param":{"num_deleted":"0","num_feature":"10","num_nodes":"125","size_leaf_vector":"1"}},{"base_weights":[1.9673128E2,-3.3237496E4,2.0358625E5,-4.8767855E4,1.22875375E5,8.5755086E4,4.6202075E5,-6.660339E4,-9.365634E3,4.6081547E4,2.3840195E5,1.08965625E4,1.5685273E5,3.3762056E5,6.038978E5,-7.915007E4,-4.6379234E4,-3.9761074E4,4.2107613E4,3.4720066E4,2.3511039E5,1.9152306E5,4.96957E5,-4.2151704E3,1.0157408E5,1.15058016E5,2.9946438E5,2.4440169E5,5.218257E5,5.1492228E5,7.945927E5,-8.835525E4,-6.902412E4,-6.56473E4,-2.403675E4,-5.9969008E4,-1.385463E4,2.4286314E4,8.281401E4,-1.0517236E4,7.082639E4,1.3690042E5,3.240724E5,1.5583612E5,2.7262497E5,4.0844638E5,6.270122E5,-4.9585266E4,1.5671527E4,-1.01011707E3,1.4290186E5,8.535654E4,1.6175406E5,2.6925628E5,4.4530594E5,1.9876869E5,3.1006156E5,4.3420206E5,6.289653E5,4.1316844E5,7.275953E5,7.209102E5,9.257026E5,-9.877682E3,-8.477229E3,-8.394092E3,-5.8618276E3,-8.811769E3,-5.9464185E3,-3.5303572E3,-3.296873E2,-8.23821E3,-5.191227E3,-2.6713657E3,7.984357E2,8.693958E2,4.832861E3,6.1623125E3,1.1830679E4,-6.312439E3,6.472682E2,5.3403794E3,1.2954993E4,1.0205366E4,4.4757953E4,7.85319E4,3.015912E4,1.1840663E4,1.996564E4,2.0652414E4,3.166726E4,3.0878988E4,4.692119E4,4.7205277E4,7.163429E4,-1.1366328E4,-3.7194465E3,-1.1607697E3,3.7710935E3,-8.909803E3,3.5099763E3,1.1930181E4,2.1672678E4,5.926607E3,1.1757327E4,1.2693548E4,2.0721807E4,2.1231291E4,3.2004021E4,3.6314668E4,5.1083465E4,1.859635E4,2.7421744E4,2.9302104E4,3.877532E4,4.027919E4,5.2849207E4,5.699374E4,7.356264E4,3.3093613E4,4.8217395E4,5.932104E4,8.178984E4,6.0731184E4,8.777746E4,8.4625945E4,1.0303643E5],"categories":[],"categories_nodes":[],"categories_segments":[],"categories_sizes":[],"default_left":[0,0,0,0,0,0,0,0,0,0,0,0,0,0,0,0,0,0,0,0,0,0,0,0,0,0,0,0,0,0,0,0,0,0,0,0,0,0,0,0,0,0,0,0,0,0,0,0,0,0,0,0,0,0,0,0,0,0,0,0,0,0,0,0,0,0,0,0,0,0,0,0,0,0,0,0,0,0,0,0,0,0,0,0,0,0,0,0,0,0,0,0,0,0,0,0,0,0,0,0,0,0,0,0,0,0,0,0,0,0,0,0,0,0,0,0,0,0,0,0,0,0,0,0,0,0,0],"id":11,"left_children":[1,3,5,7,9,11,13,15,17,19,21,23,25,27,29,31,33,35,37,39,41,43,45,47,49,51,53,55,57,59,61,63,65,67,69,71,73,75,77,79,81,83,85,87,89,91,93,95,97,99,101,103,105,107,109,111,113,115,117,119,121,123,125,-1,-1,-1,-1,-1,-1,-1,-1,-1,-1,-1,-1,-1,-1,-1,-1,-1,-1,-1,-1,-1,-1,-1,-1,-1,-1,-1,-1,-1,-1,-1,-1,-1,-1,-1,-1,-1,-1,-1,-1,-1,-1,-1,-1,-1,-1,-1,-1,-1,-1,-1,-1,-1,-1,-1,-1,-1,-1,-1,-1,-1,-1,-1,-1],"loss_changes":[5.963614E14,1.8261122E14,3.7698213E14,4.814051E13,6.0449828E13,4.5264157E13,6.8223274E13,1.1962256E13,3.3400165E13,8.7864566E12,3.2885457E13,5.678928E12,2.5964872E13,3.538293E13,3.0301464E13,2.7064334E12,7.7718943E12,7.025799E12,5.747832E12,6.31202E12,1.9826077E12,6.628829E12,4.5441006E12,3.2065119E12,2.5099743E12,4.6671237E12,4.232833E12,4.0582156E12,6.242148E12,2.646844E13,4.877774E12,5.606862E11,2.1467622E12,1.3417495E12,1.9540874E12,1.3572705E12,1.6523248E12,2.066646E12,1.8075825E12,1.5341541E12,2.1917577E12,1.1668531E12,1.0178517E12,2.605552E12,1.9814395E12,1.3750858E12,1.9735668E12,8.5565034E11,1.4860472E12,5.4705157E11,7.0938316E11,1.7287652E12,2.0489972E12,2.3062255E12,7.189687E11,7.3543975E11,6.304165E11,9.273774E11,1.5324896E12,4.601319E12,4.3568417E12,6.0957833E12,8.159096E11,0E0,0E0,0E0,0E0,0E0,0E0,0E0,0E0,0E0,0E0,0E0,0E0,0E0,0E0,0E0,0E0,0E0,0E0,0E0,0E0,0E0,0E0,0E0,0E0,0E0,0E0,0E0,0E0,0E0,0E0,0E0,0E0,0E0,0E0,0E0,0E0,0E0,0E0,0E0,0E0,0E0,0E0,0E0,0E0,0E0,0E0,0E0,0E0,0E0,0E0,0E0,0E0,0E0,0E0,0E0,0E0,0E0,0E0,0E0,0E0,0E0,0E0,0E0,0E0],"parents":[2147483647,0,0,1,1,2,2,3,3,4,4,5,5,6,6,7,7,8,8,9,9,10,10,11,11,12,12,13,13,14,14,15,15,16,16,17,17,18,18,19,19,20,20,21,21,22,22,23,23,24,24,25,25,26,26,27,27,28,28,29,29,30,30,31,31,32,32,33,33,34,34,35,35,36,36,37,37,38,38,39,39,40,40,41,41,42,42,43,43,44,44,45,45,46,46,47,47,48,48,49,49,50,50,51,51,52,52,53,53,54,54,55,55,56,56,57,57,58,58,59,59,60,60,61,61,62,62],"right_children":[2,4,6,8,10,12,14,16,18,20,22,24,26,28,30,32,34,36,38,40,42,44,46,48,50,52,54,56,58,60,62,64,66,68,70,72,74,76,78,80,82,84,86,88,90,92,94,96,98,100,102,104,106,108,110,112,114,116,118,120,122,124,126,-1,-1,-1,-1,-1,-1,-1,-1,-1,-1,-1,-1,-1,-1,-1,-1,-1,-1,-1,-1,-1,-1,-1,-1,-1,-1,-1,-1,-1,-1,-1,-1,-1,-1,-1,-1,-1,-1,-1,-1,-1,-1,-1,-1,-1,-1,-1,-1,-1,-1,-1,-1,-1,-1,-1,-1,-1,-1,-1,-1,-1,-1,-1,-1],"split_conditions":[8.6042106E-1,1.0533845E0,3.8646072E-1,-1.9132519E-1,-1.05468355E-1,-4.3034786E-1,1.2233678E0,-9.819965E-2,-8.616521E-2,3.7801633E0,3.2925766E0,3.2858768E0,2.7492714E0,2.480969E0,2.2126663E0,-5.65812E-1,-6.206094E-1,-5.057625E-1,3.3454794E-1,-5.2402043E-1,-4.7035992E-1,2.0329323E0,4.63657E0,-8.4400684E-1,-8.876415E-1,1.6116683E0,4.4878726E0,1.5365436E0,3.5649114E0,2.79088E0,1.9400634E0,-9.282471E-1,-5.991452E-1,-8.996441E-1,3.9901492E-1,-9.110207E-1,2.808874E-1,3.9901492E-1,4.6775573E-1,-7.9232305E-1,2.2820394E0,7.889799E-1,-4.596278E-1,2.808874E-1,2.594232E-1,2.594232E-1,2.0576267E-1,-1.1265293E0,1.4614189E0,-1.1265293E0,4.4878726E0,-5.53865E-2,-4.9217787E-2,-9.819965E-2,-4.9217787E-2,1.0141323E0,1.0141323E0,9.7594345E-1,4.4878726E0,1.3540978E0,1.1823841E0,3.5649114E0,2.4331112E0,-9.877682E3,-8.477229E3,-8.394092E3,-5.8618276E3,-8.811769E3,-5.9464185E3,-3.5303572E3,-3.296873E2,-8.23821E3,-5.191227E3,-2.6713657E3,7.984357E2,8.693958E2,4.832861E3,6.1623125E3,1.1830679E4,-6.312439E3,6.472682E2,5.3403794E3,1.2954993E4,1.0205366E4,4.4757953E4,7.85319E4,3.015912E4,1.1840663E4,1.996564E4,2.0652414E4,3.166726E4,3.0878988E4,4.692119E4,4.7205277E4,7.163429E4,-1.1366328E4,-3.7194465E3,-1.1607697E3,3.7710935E3,-8.909803E3,3.5099763E3,1.1930181E4,2.1672678E4,5.926607E3,1.1757327E4,1.2693548E4,2.0721807E4,2.1231291E4,3.2004021E4,3.6314668E4,5.1083465E4,1.859635E4,2.7421744E4,2.9302104E4,3.877532E4,4.027919E4,5.2849207E4,5.699374E4,7.356264E4,3.3093613E4,4.8217395E4,5.932104E4,8.178984E4,6.0731184E4,8.777746E4,8.4625945E4,1.0303643E5],"split_indices":[0,9,9,0,0,9,9,9,9,9,9,0,0,0,0,9,0,9,0,0,0,9,9,9,9,0,0,0,0,9,9,9,0,0,9,9,0,9,9,0,9,2,0,0,0,0,0,9,0,9,0,9,9,9,9,9,9,9,0,0,0,0,9,0,0,0,0,0,0,0,0,0,0,0,0,0,0,0,0,0,0,0,0,0,0,0,0,0,0,0,0,0,0,0,0,0,0,0,0,0,0,0,0,0,0,0,0,0,0,0,0,0,0,0,0,0,0,0,0,0,0,0,0,0,0,0,0],"split_type":[0,0,0,0,0,0,0,0,0,0,0,0,0,0,0,0,0,0,0,0,0,0,0,0,0,0,0,0,0,0,0,0,0,0,0,0,0,0,0,0,0,0,0,0,0,0,0,0,0,0,0,0,0,0,0,0,0,0,0,0,0,0,0,0,0,0,0,0,0,0,0,0,0,0,0,0,0,0,0,0,0,0,0,0,0,0,0,0,0,0,0,0,0,0,0,0,0,0,0,0,0,0,0,0,0,0,0,0,0,0,0,0,0,0,0,0,0,0,0,0,0,0,0,0,0,0,0],"sum_hessian":[8.7696E4,7.5316E4,1.238E4,6.8502E4,6.814E3,8.504E3,3.876E3,4.7156E4,2.1346E4,4.094E3,2.72E3,4.143E3,4.361E3,2.067E3,1.809E3,2.91E4,1.8056E4,1.3421E4,7.925E3,3.863E3,2.31E2,2.304E3,4.16E2,3.552E3,5.91E2,3.374E3,9.87E2,1.374E3,6.93E2,1.236E3,5.73E2,1.5239E4,1.3861E4,9.694E3,8.362E3,7.539E3,5.882E3,5.513E3,2.412E3,1.715E3,2.148E3,1.11E2,1.2E2,1.602E3,7.02E2,2.5E2,1.66E2,1.082E3,2.47E3,1.7E2,4.21E2,2.064E3,1.31E3,8.2E2,1.67E2,8.13E2,5.61E2,3.84E2,3.09E2,8.38E2,3.98E2,3.71E2,2.02E2,3.892E3,1.1347E4,5.693E3,8.168E3,2.089E3,7.605E3,5.418E3,2.944E3,1.991E3,5.548E3,3.702E3,2.18E3,3.345E3,2.168E3,1.512E3,9E2,4.18E2,1.297E3,1.658E3,4.9E2,1.01E2,1E1,4E0,1.16E2,8.66E2,7.36E2,2.83E2,4.19E2,9.7E1,1.53E2,6.3E1,1.03E2,1.74E2,9.08E2,1.104E3,1.366E3,4.9E1,1.21E2,3.21E2,1E2,1.142E3,9.22E2,7.44E2,5.66E2,3.89E2,4.31E2,7.7E1,9E1,6.98E2,1.15E2,4.64E2,9.7E1,2.92E2,9.2E1,2.03E2,1.06E2,3.85E2,4.53E2,1.63E2,2.35E2,2.18E2,1.53E2,1.2E2,8.2E1],"tree_param":{"num_deleted":"0","num_feature":"10","num_nodes":"127","size_leaf_vector":"1"}},{"base_weights":[1.9436807E2,-3.7896574E4,1.4564733E5,-5.443921E4,4.6176414E4,6.8715914E4,3.975283E5,-6.909266E4,-3.4928707E4,2.8320232E4,1.9432044E5,1.3341555E4,1.4318873E5,2.9184125E5,5.5437694E5,-7.765701E4,-5.7912957E4,-6.154732E4,-1.3973519E4,-1.3321877E4,7.4794555E4,9.666448E4,2.8492588E5,-7.252197E3,7.7087836E4,9.335011E4,2.9257478E5,2.1147177E5,5.0306844E5,4.5456944E5,7.0983244E5,-8.94745E4,-7.3522016E4,-6.821913E4,-4.8983582E4,-7.631159E4,-5.255812E4,-2.7243701E4,3.3753525E3,-4.910094E4,-1.3122925E3,4.9340363E4,1.1736026E5,7.38756E4,2.3980062E5,2.1980938E5,3.9998144E5,-3.4819535E4,1.9043775E4,2.0999004E4,1.3030089E5,7.045615E4,1.4882527E5,2.384601E5,3.9012378E5,1.7882325E5,2.8807844E5,4.4270988E5,7.7238425E5,3.6615806E5,6.4958E5,6.440853E5,8.2981494E5,-9.696261E3,-8.6292E3,-8.1501055E3,-6.6853477E3,-8.12807E3,-6.393306E3,-5.4685757E3,-3.155784E3,-9.605189E3,-7.1590728E3,-5.822095E3,-4.0214575E3,-3.7167039E3,-1.0783567E3,-6.349889E2,3.620352E3,-7.7788086E3,-3.4987637E3,-1.1886422E3,3.7379536E3,3.0854802E3,7.4011597E3,9.58893E3,1.6111945E4,-4.170995E3,1.00927295E4,4.5166266E4,1.7209936E4,1.9872373E4,2.732839E4,3.2087521E4,4.4797844E4,-8.356753E3,-2.6745251E3,1.8908968E2,4.1835415E3,-7.0775933E3,3.6776978E3,1.1101353E4,2.267661E4,4.403815E3,9.740374E3,1.1841268E4,1.9006201E4,1.9688553E4,3.0268053E4,3.301318E4,4.7159863E4,1.6025133E4,2.3621176E4,2.5925254E4,3.7225973E4,4.0705137E4,5.6912062E4,5.818104E4,8.385612E4,3.1915459E4,4.2655832E4,5.8425965E4,7.927937E4,5.6054258E4,8.957209E4,7.8854695E4,1.0337387E5],"categories":[],"categories_nodes":[],"categories_segments":[],"categories_sizes":[],"default_left":[0,0,0,0,0,0,0,0,0,0,0,0,0,0,0,0,0,0,0,0,0,0,0,0,0,0,0,0,0,0,0,0,0,0,0,0,0,0,0,0,0,0,0,0,0,0,0,0,0,0,0,0,0,0,0,0,0,0,0,0,0,0,0,0,0,0,0,0,0,0,0,0,0,0,0,0,0,0,0,0,0,0,0,0,0,0,0,0,0,0,0,0,0,0,0,0,0,0,0,0,0,0,0,0,0,0,0,0,0,0,0,0,0,0,0,0,0,0,0,0,0,0,0,0,0,0,0],"id":12,"left_children":[1,3,5,7,9,11,13,15,17,19,21,23,25,27,29,31,33,35,37,39,41,43,45,47,49,51,53,55,57,59,61,63,65,67,69,71,73,75,77,79,81,83,85,87,89,91,93,95,97,99,101,103,105,107,109,111,113,115,117,119,121,123,125,-1,-1,-1,-1,-1,-1,-1,-1,-1,-1,-1,-1,-1,-1,-1,-1,-1,-1,-1,-1,-1,-1,-1,-1,-1,-1,-1,-1,-1,-1,-1,-1,-1,-1,-1,-1,-1,-1,-1,-1,-1,-1,-1,-1,-1,-1,-1,-1,-1,-1,-1,-1,-1,-1,-1,-1,-1,-1,-1,-1,-1,-1,-1,-1],"loss_changes":[4.858855E14,9.6659564E13,3.526444E14,1.6600166E13,3.0222185E13,5.7497402E13,7.04225E13,3.1707428E12,1.389389E13,1.973901E13,1.0846848E13,1.0500134E13,4.424182E13,4.3115096E13,2.6255605E13,9.108602E11,1.320845E12,1.4521813E12,3.2091655E12,2.311677E12,5.216563E12,1.9165987E12,4.6844923E12,4.3834687E12,5.8263003E12,5.6539176E12,7.756602E12,4.5655E12,1.1053165E13,1.7796398E13,4.735067E12,1.0749582E11,7.349008E11,3.6860173E11,7.6467405E11,3.7986553E11,4.745834E11,1.2896541E12,1.92921E12,5.4466288E11,1.6488386E12,1.3741101E12,1.6785605E12,1.6082508E12,1.0840787E12,4.0685797E11,7.257362E11,1.1596868E12,1.2098871E12,1.3811201E12,1.8391079E12,2.244607E12,1.6103548E12,2.5008747E12,2.42997E12,1.3445093E12,1.2381208E12,2.3602187E12,1.113789E12,1.9136428E12,2.5770978E12,8.663637E12,1.1456825E12,0E0,0E0,0E0,0E0,0E0,0E0,0E0,0E0,0E0,0E0,0E0,0E0,0E0,0E0,0E0,0E0,0E0,0E0,0E0,0E0,0E0,0E0,0E0,0E0,0E0,0E0,0E0,0E0,0E0,0E0,0E0,0E0,0E0,0E0,0E0,0E0,0E0,0E0,0E0,0E0,0E0,0E0,0E0,0E0,0E0,0E0,0E0,0E0,0E0,0E0,0E0,0E0,0E0,0E0,0E0,0E0,0E0,0E0,0E0,0E0,0E0,0E0,0E0,0E0],"parents":[2147483647,0,0,1,1,2,2,3,3,4,4,5,5,6,6,7,7,8,8,9,9,10,10,11,11,12,12,13,13,14,14,15,15,16,16,17,17,18,18,19,19,20,20,21,21,22,22,23,23,24,24,25,25,26,26,27,27,28,28,29,29,30,30,31,31,32,32,33,33,34,34,35,35,36,36,37,37,38,38,39,39,40,40,41,41,42,42,43,43,44,44,45,45,46,46,47,47,48,48,49,49,50,50,51,51,52,52,53,53,54,54,55,55,56,56,57,57,58,58,59,59,60,60,61,61,62,62],"right_children":[2,4,6,8,10,12,14,16,18,20,22,24,26,28,30,32,34,36,38,40,42,44,46,48,50,52,54,56,58,60,62,64,66,68,70,72,74,76,78,80,82,84,86,88,90,92,94,96,98,100,102,104,106,108,110,112,114,116,118,120,122,124,126,-1,-1,-1,-1,-1,-1,-1,-1,-1,-1,-1,-1,-1,-1,-1,-1,-1,-1,-1,-1,-1,-1,-1,-1,-1,-1,-1,-1,-1,-1,-1,-1,-1,-1,-1,-1,-1,-1,-1,-1,-1,-1,-1,-1,-1,-1,-1,-1,-1,-1,-1,-1,-1,-1,-1,-1,-1,-1,-1,-1,-1,-1,-1,-1],"split_conditions":[4.0967265E-1,5.0083256E-1,6.756987E-1,-4.274315E-1,2.598405E0,-2.418462E-1,1.5365436E0,-2.0469749E-1,-4.4513372E-1,-3.3084255E-1,-3.2011044E-1,2.0409524E0,2.0409524E0,2.4331112E0,1.5388429E0,-7.3866254E-1,-7.171983E-1,-8.305367E-1,-2.093853E-2,-7.3866254E-1,1.2233678E0,4.63657E0,3.7801633E0,-6.241694E-1,-6.535856E-1,1.2897053E0,3.5649114E0,1.6148177E0,4.63657E0,3.2858768E0,2.4331112E0,-8.567157E-1,-7.1101105E-1,-9.318404E-1,1.5791695E-1,-1.0874432E0,3.4049E-2,-4.107573E-2,8.7709524E-2,-8.8891196E-1,1.6148177E0,1.2584792E-2,9.844163E-2,-7.601267E-1,-3.922224E-1,2.0576267E-1,-8.879417E-3,-1.0423537E0,1.0428668E0,-1.056135E0,4.144445E0,9.246107E-2,1.6738066E-1,2.309534E-1,2.1173643E-1,1.1394558E0,1.1823841E0,1.2467768E0,6.0285056E-1,2.3199873E0,4.4878726E0,3.2858768E0,3.7801633E0,-9.696261E3,-8.6292E3,-8.1501055E3,-6.6853477E3,-8.12807E3,-6.393306E3,-5.4685757E3,-3.155784E3,-9.605189E3,-7.1590728E3,-5.822095E3,-4.0214575E3,-3.7167039E3,-1.0783567E3,-6.349889E2,3.620352E3,-7.7788086E3,-3.4987637E3,-1.1886422E3,3.7379536E3,3.0854802E3,7.4011597E3,9.58893E3,1.6111945E4,-4.170995E3,1.00927295E4,4.5166266E4,1.7209936E4,1.9872373E4,2.732839E4,3.2087521E4,4.4797844E4,-8.356753E3,-2.6745251E3,1.8908968E2,4.1835415E3,-7.0775933E3,3.6776978E3,1.1101353E4,2.267661E4,4.403815E3,9.740374E3,1.1841268E4,1.9006201E4,1.9688553E4,3.0268053E4,3.301318E4,4.7159863E4,1.6025133E4,2.3621176E4,2.5925254E4,3.7225973E4,4.0705137E4,5.6912062E4,5.818104E4,8.385612E4,3.1915459E4,4.2655832E4,5.8425965E4,7.927937E4,5.6054258E4,8.957209E4,7.8854695E4,1.0337387E5],"split_indices":[0,9,9,0,9,9,0,9,9,0,0,0,0,9,9,0,0,9,9,0,9,9,9,9,9,0,0,9,9,0,9,0,9,0,9,9,0,0,0,0,9,0,0,0,8,0,0,9,0,9,0,9,9,9,9,0,0,0,0,0,0,0,9,0,0,0,0,0,0,0,0,0,0,0,0,0,0,0,0,0,0,0,0,0,0,0,0,0,0,0,0,0,0,0,0,0,0,0,0,0,0,0,0,0,0,0,0,0,0,0,0,0,0,0,0,0,0,0,0,0,0,0,0,0,0,0,0],"split_type":[0,0,0,0,0,0,0,0,0,0,0,0,0,0,0,0,0,0,0,0,0,0,0,0,0,0,0,0,0,0,0,0,0,0,0,0,0,0,0,0,0,0,0,0,0,0,0,0,0,0,0,0,0,0,0,0,0,0,0,0,0,0,0,0,0,0,0,0,0,0,0,0,0,0,0,0,0,0,0,0,0,0,0,0,0,0,0,0,0,0,0,0,0,0,0,0,0,0,0,0,0,0,0,0,0,0,0,0,0,0,0,0,0,0,0,0,0,0,0,0,0,0,0,0,0,0,0],"sum_hessian":[8.7696E4,6.9497E4,1.8199E4,5.8071E4,1.1426E4,1.3942E4,4.257E3,3.3162E4,2.4909E4,1.0198E4,1.228E3,7.997E3,5.945E3,2.545E3,1.712E3,1.8774E4,1.4388E4,1.0971E4,1.3938E4,5.379E3,4.819E3,5.92E2,6.36E2,6.045E3,1.952E3,4.459E3,1.486E3,1.845E3,7E2,1.045E3,6.67E2,4.861E3,1.3913E4,6.676E3,7.712E3,4.149E3,6.822E3,7.897E3,6.041E3,1.351E3,4.028E3,3.017E3,1.802E3,5.12E2,8E1,4.08E2,2.28E2,2.951E3,3.094E3,9.51E2,1.001E3,3.158E3,1.301E3,9.58E2,5.28E2,1.296E3,5.49E2,5.74E2,1.26E2,7.21E2,3.24E2,4.35E2,2.32E2,1.441E3,3.42E3,6.329E3,7.584E3,1.645E3,5.031E3,5.809E3,1.903E3,7.97E2,3.352E3,4.674E3,2.148E3,4.926E3,2.971E3,4.661E3,1.38E3,4.44E2,9.07E2,3.164E3,8.64E2,1.726E3,1.291E3,1.211E3,5.91E2,9.7E1,4.15E2,1.8E1,6.2E1,2.96E2,1.12E2,8.9E1,1.39E2,4.18E2,2.533E3,1.766E3,1.328E3,1.39E2,8.12E2,8.36E2,1.65E2,1.596E3,1.562E3,7.51E2,5.5E2,5.84E2,3.74E2,3.07E2,2.21E2,9.82E2,3.14E2,4.12E2,1.37E2,4.51E2,1.23E2,3.5E1,9.1E1,4.09E2,3.12E2,2.26E2,9.8E1,3.29E2,1.06E2,1.97E2,3.5E1],"tree_param":{"num_deleted":"0","num_feature":"10","num_nodes":"127","size_leaf_vector":"1"}},{"base_weights":[1.8880496E2,-3.005277E4,1.4902389E5,-4.674588E4,5.1786324E4,7.787981E4,4.0898166E5,-5.8072008E4,-2.0922557E4,7.8766025E3,1.1669324E5,1.8693537E4,1.5425755E5,3.2866984E5,5.547314E5,-7.153795E4,-5.0281273E4,-4.9081754E4,2.0584058E3,-5.9699966E3,8.122134E4,8.11133E4,2.6824503E5,3.9098657E3,9.573308E4,1.1827859E5,3.2980453E5,2.5129506E5,5.3164225E5,4.710173E5,6.777034E5,-7.855119E4,-6.71068E4,-5.9086715E4,-3.7439434E4,-6.0180504E4,-3.7981875E4,-1.0815576E4,1.9949549E4,-2.4382104E4,2.3718453E4,6.742576E4,2.384194E5,5.7704094E4,1.1710362E5,2.1259914E5,4.1215825E5,-2.6778713E4,3.3031094E4,1.5384858E4,1.4020369E5,8.54927E4,1.7447919E5,2.7465978E5,4.1101497E5,2.1513055E5,3.375822E5,4.456404E5,6.7531375E5,3.8698638E5,6.188131E5,6.308197E5,8.156524E4,-8.294931E3,-7.3883604E3,-8.312023E3,-6.4082393E3,-6.339882E3,-4.7842925E3,-4.6904175E3,-2.5680945E3,-6.929492E3,-4.3471143E3,-4.350175E3,-2.229014E3,-2.28957E3,4.3197607E2,4.8015216E2,4.311003E3,-6.308037E3,-1.7179332E3,1.3264473E3,5.123389E3,-2.6545657E3,8.373077E3,2.7969375E4,-4.0266316E3,3.704651E3,8.121847E3,9.470677E3,1.54802E4,1.7738018E4,2.5316379E4,3.36525E4,4.869482E4,-8.055203E3,-1.916068E3,1.5630325E3,6.975308E3,-7.5052026E3,3.2400042E3,1.2261933E4,2.2362076E4,6.3771416E3,1.1929663E4,1.4170218E4,2.2624922E4,2.4513107E4,3.8045734E4,3.601779E4,4.9732305E4,1.817263E4,2.70008E4,2.8179787E4,4.144997E4,3.909076E4,5.946172E4,5.893055E4,8.13311E4,3.5846043E4,4.695092E4,5.5188793E4,7.367224E4,5.4290957E4,7.94589E4],"categories":[],"categories_nodes":[],"categories_segments":[],"categories_sizes":[],"default_left":[0,0,0,0,0,0,0,0,0,0,0,0,0,0,0,0,0,0,0,0,0,0,0,0,0,0,0,0,0,0,0,0,0,0,0,0,0,0,0,0,0,0,0,0,0,0,0,0,0,0,0,0,0,0,0,0,0,0,0,0,0,0,0,0,0,0,0,0,0,0,0,0,0,0,0,0,0,0,0,0,0,0,0,0,0,0,0,0,0,0,0,0,0,0,0,0,0,0,0,0,0,0,0,0,0,0,0,0,0,0,0,0,0,0,0,0,0,0,0,0,0,0,0,0,0],"id":13,"left_children":[1,3,5,7,9,11,13,15,17,19,21,23,25,27,29,31,33,35,37,39,41,43,45,47,49,51,53,55,57,59,61,63,65,67,69,71,73,75,77,79,81,83,85,87,89,91,93,95,97,99,101,103,105,107,109,111,113,115,117,119,121,123,-1,-1,-1,-1,-1,-1,-1,-1,-1,-1,-1,-1,-1,-1,-1,-1,-1,-1,-1,-1,-1,-1,-1,-1,-1,-1,-1,-1,-1,-1,-1,-1,-1,-1,-1,-1,-1,-1,-1,-1,-1,-1,-1,-1,-1,-1,-1,-1,-1,-1,-1,-1,-1,-1,-1,-1,-1,-1,-1,-1,-1,-1,-1],"loss_changes":[3.9472934E14,9.9578305E13,2.7387107E14,1.7705424E13,3.519428E13,5.256618E13,3.7064326E13,4.4112166E12,1.1945389E13,7.4822273E12,2.6847597E13,7.4630163E12,3.2027303E13,3.2124376E13,1.130328E13,4.7396474E11,3.0126763E12,1.0196143E12,2.341523E12,3.388572E12,2.5212307E12,3.3944334E12,7.496106E12,4.915281E12,3.767501E12,7.751577E12,3.7519056E12,4.573855E12,6.692549E12,8.143644E12,2.4282336E12,1.1632483E11,4.5268704E11,7.63745E11,1.2060816E12,6.284074E11,3.584877E11,1.08102975E12,1.4922476E12,1.0653553E12,6.819039E11,1.6524079E12,1.0925035E12,1.1861083E12,1.327816E12,9.337171E11,1.3238188E12,1.0954911E12,1.8021417E12,5.8255947E11,9.685623E11,1.9484744E12,2.6014793E12,1.521878E12,1.3433852E12,1.8793963E12,1.7625598E12,2.6785077E12,2.013182E12,8.509991E11,1.5109477E12,4.521166E12,0E0,0E0,0E0,0E0,0E0,0E0,0E0,0E0,0E0,0E0,0E0,0E0,0E0,0E0,0E0,0E0,0E0,0E0,0E0,0E0,0E0,0E0,0E0,0E0,0E0,0E0,0E0,0E0,0E0,0E0,0E0,0E0,0E0,0E0,0E0,0E0,0E0,0E0,0E0,0E0,0E0,0E0,0E0,0E0,0E0,0E0,0E0,0E0,0E0,0E0,0E0,0E0,0E0,0E0,0E0,0E0,0E0,0E0,0E0,0E0,0E0,0E0,0E0],"parents":[2147483647,0,0,1,1,2,2,3,3,4,4,5,5,6,6,7,7,8,8,9,9,10,10,11,11,12,12,13,13,14,14,15,15,16,16,17,17,18,18,19,19,20,20,21,21,22,22,23,23,24,24,25,25,26,26,27,27,28,28,29,29,30,30,31,31,32,32,33,33,34,34,35,35,36,36,37,37,38,38,39,39,40,40,41,41,42,42,43,43,44,44,45,45,46,46,47,47,48,48,49,49,50,50,51,51,52,52,53,53,54,54,55,55,56,56,57,57,58,58,59,59,60,60,61,61],"right_children":[2,4,6,8,10,12,14,16,18,20,22,24,26,28,30,32,34,36,38,40,42,44,46,48,50,52,54,56,58,60,62,64,66,68,70,72,74,76,78,80,82,84,86,88,90,92,94,96,98,100,102,104,106,108,110,112,114,116,118,120,122,124,-1,-1,-1,-1,-1,-1,-1,-1,-1,-1,-1,-1,-1,-1,-1,-1,-1,-1,-1,-1,-1,-1,-1,-1,-1,-1,-1,-1,-1,-1,-1,-1,-1,-1,-1,-1,-1,-1,-1,-1,-1,-1,-1,-1,-1,-1,-1,-1,-1,-1,-1,-1,-1,-1,-1,-1,-1,-1,-1,-1,-1,-1,-1],"split_conditions":[6.3504684E-1,5.0083256E-1,7.7044857E-1,-2.3425362E-1,-1.8059309E-1,-2.418462E-1,1.9980241E0,-5.359799E-1,-4.3770424E-1,2.1500936E0,2.1500936E0,2.910253E0,3.0712347E0,2.598405E0,1.5388429E0,-6.420736E-1,-5.6694883E-1,-7.3526335E-1,5.5668936E-3,-4.488957E-1,4.63657E0,1.1334825E0,3.7801633E0,-6.241694E-1,-7.839416E-1,1.5365436E0,2.7031663E-1,1.7590876E0,3.7801633E0,3.5649114E0,3.2858768E0,-7.6524067E-1,-1.00642E0,1.4050339E-1,-1.2463125E-1,1.7356636E-1,2.594232E-1,1.1990584E-1,1.1990584E-1,-8.4598356E-1,1.3177286E0,-7.4939466E-1,-7.770828E-2,1.4137004E-1,2.3795898E-1,2.3795898E-1,2.0576267E-1,-1.056135E0,1.6116683E0,-1.1265293E0,4.4878726E0,2.4057938E-1,2.6018044E-1,4.4878726E0,4.144445E0,1.3540978E0,1.2897053E0,1.4614189E0,1.1823841E0,3.0712347E0,4.4878726E0,2.4331112E0,8.156524E4,-8.294931E3,-7.3883604E3,-8.312023E3,